[[0.026215560938646135, -0.17470463271349515, -0.007610826981517212, -0.011529755569517105, 0.024047069638120127, -0.034070030076099024, -0.022599263168803597, -0.2679237207985338, 0.004614923254048919, -0.02238811166031053, 0.03207902367426643, 0.028377769654330247, 0.0390226061929873, 0.013809099502467748, -0.039931763149558444, -0.004861621469126494, -0.10076778118863591, 0.011540366253743332, 0.0, 0.0, -0.022458374446395313, -0.014354337634011685, -0.03493330908039672, -0.014537147636723957, 0.011715005595866362, 0.02056512984291933, -0.015342769879479036], [-0.020468345028166208, 0.03459165055922663, 0.018368959738180517, -0.005931252056123268, -0.10150226604786747, -0.03927894276349027, 0.004928318887778195, 0.036320121787213874, 0.017824290860805142, -0.00484889056260476, 0.011909831946483448, -0.04018964798168319, -0.010308135213509005, 0.006034679902124161, 0.0333600752968022, 0.01906289029686412, -0.045755876967603505, -0.015822903599547612, -0.22054811106182923, -0.04505633791490412, 0.005082935791062597, 0.039873444526281894, 0.04623937384878928, 0.008967201495244721, 0.10814101512966189, -0.03282098705052375, 0.026763513685628997], [-0.0018576415301414311, -0.015285012746739107, 0.03036840400459393, -0.17872676712675925, -0.027978251403105565, -0.011554110960056718, -0.01649460800432471, 0.1283969258898368, -0.030834875770694062, -0.03842950428046528, -0.006413885506974025, -0.026910865451429806, 0.0027752006863526846, 0.017239983677390942, -0.004699326409487112, -0.02026060656578959, 0.1360103206215156, -0.0034286868725118156, 0.033870833061145196, 0.01771941370035963, 0.022532134806709257, 0.15256088867313436, -0.016056469192776368, 0.0036898628931544748, -0.00587409322573275, -0.024471113604617675, -0.025560213334201793], [-0.026517318685384535, 0.2618497341451863, 0.009801111235765329, -0.011861305944231255, -0.00926290871337937, -0.009452064928460052, 0.002328726829509042, 0.017091633059214233, 0.018873308900671792, 0.2682336998927569, 0.0007200828439659419, 0.0006488016091826179, -0.016016042793604038, 0.02447703565513588, -0.08360142137927874, -0.01802323233673346, 0.019464232468015135, -0.02257238631364324, 0.012150682303507094, 0.019461583071200148, -0.00962531025992697, -0.014202982577917102, -0.0070697592371295505, -0.03591892484494941, 0.044031078336198404, -0.02472080203600242, -0.012023829599051048], [-0.056791685241944286, -0.253259202117485, -0.19227091808834088, 0.01487166906753531, -0.04045306225186211, -0.00932857177565994, 0.0, -0.004166463035783921, 0.009035755597421478, 0.012500663318544778, -0.010766148137233469, -0.018175036717934388, 0.015681955232544446, -0.01198754090554297, -0.00606014338772428, -0.016275684883746176, 0.004241364441867814, 0.004799518118473284, 0.23241917716695518, -0.013115110105698173, -0.011770502924974354, -0.011610611492791183, -0.01696408188077698, 0.00726096457586642, 0.0034180066520137745, 0.0, -0.022776162881279663], [-0.22227319898358544, 0.000680629321542195, -0.05361424792057788, 0.008411647820445001, 0.22890546670188675, -0.1389016266891282, -0.000836066420549231, -0.051515885087417924, -0.008457264180292226, -0.003773072001496795, 0.005972261651597829, 0.0009665018560280948, -0.006265056735452105, -0.006997536854763597, 0.0008450143084282537, 0.09426057693977602, -0.0066920732755862185, -0.0033601865392385243, 0.07616783754437449, 0.008481770967663128, 0.00735820791623588, 0.015272795630399906, 0.00310197997781012, -0.002723068078249695, 0.005799148454372988, 0.03735988078947454, 0.00100699735362708], [-0.013237193499248389, -0.024790320232298324, 0.08484452853194853, 0.008917617057905556, 0.023746620104440477, 0.030481928063917845, -0.17189838155147485, -0.015037232506475264, 0.0, -0.014176804449911918, 0.0025113142462071763, -0.018353886611830014, -0.05724606994435489, 0.022614869898079565, -0.004299142873599197, -0.006475774633626103, 0.2119756695748005, -0.011114717720115201, -0.015026818903444705, -0.02066584074336141, -0.021007680147081178, 0.003909858077731397, -0.1485873643629762, 0.04014583214007259, 0.012182312359379954, 0.002827530586326922, -0.01392469117939199], [0.0024175511905466986, -0.002078244378820986, -0.0034474437192908666, 0.28867152656172346, 0.012025183605995764, -0.027712439811595494, -0.01866487265442699, 0.027285614197528923, 0.012019517905825748, -0.0011343897347110678, 0.008270880514012076, -0.12588779311130574, -0.025452938932582943, 0.01807745374549671, 0.04586555088845952, 0.04448242042376432, -0.0904146992314063, 0.028004559879063945, -0.03428271048110998, 0.0, -0.005537192827696856, 0.030773132739350735, -0.02711893384935084, 0.036477552729443904, -0.006021994762465783, -0.04971142682090143, -0.028163975303122944], [0.005143846281772647, 0.1679455271343449, 0.018687960776673552, 0.007882277532084573, -0.1558510665587537, 0.009823458436825075, 0.031057718472842347, 0.022538831161596887, 0.00013434186601084296, -0.02534808694817618, 0.140148901579017, 0.02998864263560598, -0.011090721738912564, 0.01804753336769586, -0.007802857093919601, 0.01540278722048755, 0.025649258797873165, -0.01914192529763479, 0.003481585837922184, -0.012073825652911303, -0.003052704890537846, 0.0289430740522631, 0.11254113759183496, 0.023018479329726678, -0.00034234335086840735, -0.04880547655352782, 0.05605562984018053], [-0.006575478122771447, 0.027653712730190003, -0.003515807793860667, -0.19327731104139564, 0.0, -0.010525763993009758, -0.005297369500806348, 0.0, 0.06507352595363573, 0.011378463570599214, -0.016273602248021053, 0.017358521146638915, -0.004520493179667549, -0.0036796790924357842, 0.009871359039249863, 0.009755156810821957, 0.014281529046191116, -0.22236969481421193, -0.01580921697454429, -0.016905260027789998, -0.006809263091196338, -0.013275075416923137, 0.004008755944586397, 0.2925782728524756, -0.0005467366835975049, -0.013411370314423156, 0.015248580610956512], [-0.010906795191830326, 0.0062701213710212094, -0.005405972580010913, -0.00290662570819977, 0.12114318752600554, -0.004573316925737245, 0.005756034588328804, 0.0, 0.003705960214214546, 0.10805787870620724, -0.0016497945907979691, -0.003218956138367554, -0.17624672316553958, 0.02428623426323089, -0.05343687087461575, 0.013659801080272451, -0.012719076047790998, -0.014621211916977463, 0.2690911647505631, -0.008306344858210354, 0.002144640368654149, -0.06913833243162738, -0.010421343899018193, -0.05861343900291238, -0.006050540462935516, -0.0031205257518476946, 0.004549107585082814], [-0.023172318727419032, -0.00011365611650221587, -0.013347400890507495, -0.022460456603865687, 0.0010136803824353075, 0.020533738606399465, -0.009699780852077068, -0.027093425528907242, -0.005542067262840766, 0.01623231433763751, 0.04908305188807459, -0.14657424823730855, -0.025132369164961085, -0.13093576332610743, 0.0019777804227198536, -0.009622898788388998, 0.018676377768700632, -0.03018922491970892, -0.010578071556437064, -0.02421761282625421, -0.3201547669826256, -0.031191913618828972, -0.0034142759059274546, -0.015218448443562006, -0.017072291831944413, -0.020433835879220364, 0.006318229130638103], [0.009180064268313106, -0.0016717611904184977, -0.0010538433088365, 0.009592349145754683, -0.0029696725253011273, 0.006967192839757351, 0.14707259466806036, 0.008943655696749406, -0.011137601459136573, -0.020169284153461323, -0.009835947325541402, 0.002997775957497324, 0.01283878272759318, 0.001091045829335237, -0.11026281311506562, -0.01759470094152703, -0.2510417291388042, 0.03115911348836697, 0.0011429433982886666, 0.013592201894345114, 0.015637599889451445, 0.013246139201068706, -0.009708615650386804, 0.0026770944762215198, 0.1776260961787233, 0.11078938153199448, 0.0], [0.0, -0.1182067879968242, 0.007611539074363808, 0.0, 0.0, -0.028439967607208544, -0.1272688359344512, 0.022716407598816296, -0.005018346953205817, -0.010618520311069793, 0.015817922880570146, 0.013021352345824194, -0.021809450412354606, 0.014239008375890719, 0.2573095027489278, 0.0, 0.002966579095040088, 0.07909135855102292, -0.030030144649642296, 0.020825674024182672, 0.025438453752936765, -0.012156792097898833, -0.0008087251186524419, 0.02034296928882735, -0.0034029613439620528, 0.13966863574825975, -0.023190064090067755], [0.1568524385192982, 0.02305925918965593, 0.08600037659579274, 0.0, 0.0012145498623516316, -0.0017586564449568278, -0.23331482066127707, 0.0551220908205389, 0.001596868514540008, 0.005714220310975423, 0.009163179287244295, -0.005772744336417475, -0.0075558530718984615, -0.025419883797369442, 0.005414740278061403, -0.0029805763924206446, 0.0028525979025284167, 0.0006508275340573827, -0.010105059317765903, -0.0048127053527781466, -0.0029678007948221573, 0.0013753544919171135, 0.012233552976365934, -0.0018479061613230299, -0.04082171867093721, 0.29411967634360775, 0.007272542371098203], [-0.0164705956836169, 0.1483820693932888, -0.028546302820931464, -0.019804347184108805, -0.1355828837901265, 0.011608059727095233, 0.017979392604476577, -0.015934781545845083, 0.016389702068452826, 0.007810135992894273, 0.0, 0.011399479856260455, 0.016761702723518224, 0.01694501584316382, 0.0, 0.008209972567833715, -0.01027207110004732, -0.009675374561393911, -0.27906238087202334, 0.007131094747474205, 0.015451114448539815, 0.1611558878377452, -0.005687538559199933, -0.010930598989879569, 0.011012532964211822, 0.013800963221376335, -0.003996000896495962], [0.03551937557956614, 0.005112933380338683, 0.1388910061678508, 0.006969730107717342, 0.014920551339081448, 0.013459906871795522, -0.006265932287916335, -0.017422085760018264, -0.026114685239805122, 0.2332724697335363, 0.017383165564954246, 0.0, -0.021936373604811023, 0.007854067205123943, 0.02398744132971679, 0.012212016232408458, 0.011886635772438424, -0.0016603525556265035, 0.024857682974264914, 0.020047677597739642, 0.004228424887065104, 0.015980224797250746, 0.26425872684934415, -0.02033675966882507, 0.030626952583856497, -0.023783359632015902, -0.0010114622769327255], [-0.02356529360766745, 0.00705258238052814, -0.20418090281697904, 0.009312961386359024, -0.012564025587879802, -0.18998217563641367, 0.02389915640219616, 0.014380159070233024, -0.02631811508206224, -0.006342615883969795, 0.016727123674545628, 0.11252500912651195, 0.03358767640279729, -0.009616045579551789, 0.0, -0.017610804063286137, -0.023539196217063862, -0.03461193981405761, -0.03115349248074334, 0.1110851614553102, 0.021689315278768925, 0.0, -0.005827517633941411, 0.02543697649015809, -0.009099129862017505, -0.013396052879172227, 0.016496571187785546], [0.0029899064675561423, 0.01891019273412838, -0.020444690068240314, 0.011747464019909181, 0.1956410702548414, 0.020712029144148582, -0.031617175956624145, -0.026123957066560868, 0.007836255483241149, 0.048691377137758333, -0.05110996833131001, 0.01781240389955283, 0.009049264518092489, -0.028141294777215463, 0.026976049176598797, 0.23682288039290586, -0.024016276358511227, -0.028007279026138743, -0.0032909861963648533, 0.01952998386975083, -0.0033959275761979626, 0.005470885257681685, 0.0783254953423099, 0.028799574455287517, 0.01869994952287754, 0.03209106340499564, -0.0037465995612000202], [0.03066406204689808, 0.22861739401603595, 0.033414738548973415, -0.2288400798162585, 0.0012387612665541298, 0.04747223000750391, -0.025099569486567132, -0.018019786180410342, 0.0, -0.021702260619506007, 0.010207743832388816, -0.035425309131459366, -0.005653943512633401, 0.0, 0.004739291021614702, 0.001270484114638334, 0.040490651419275395, -0.04894097764836953, 0.0, 0.045654292105686, -0.0036970086682287665, -0.021717633067967985, -0.01725953454318167, 0.0015209328857029105, 0.023168555067599836, 0.05039234387592966, -0.05479241711661597], [-0.15945065876527542, 0.0, 0.009112377284632482, 0.04587955379176732, -0.0045070306981638796, 0.010846040906775616, -0.005758759801465795, 0.011304520839528445, -0.026713461533744827, -0.013365143207604865, -0.011042359191736387, -0.010455675928714749, 0.020971344650591323, 0.010271129327098491, 0.01070510030141426, 0.013658842698803762, 0.009040247186450323, 0.005543410849824967, 0.20634259475146996, -0.0014778045111311737, -0.00877042100316644, -0.010646689367644143, 0.1764820443313127, 0.0070648127652918865, -0.17616544831619624, 0.011295390909897458, -0.02312913708029701], [-0.01676810672107715, -0.014470769570324485, -0.014164790104546106, -0.007179145358466694, 0.24292163943379122, -0.008760429811011534, -0.01159675520639317, -0.011626309980666544, 0.01053647571548291, 1.054346932769588e-05, 0.0012826738079690044, -0.0034962391018514612, 0.0034524345641927462, -0.09040338307609914, 0.0, -0.006820961633955047, 0.0011656159937518881, 0.01523766477820876, -0.2461817883574067, 0.0024915108667336273, -0.04212409060750778, 0.009232133796320478, -0.012556325258554657, -0.009251187423560955, 0.007975640276361821, -0.19679195653928272, 0.013501428547155778], [0.004276911449893011, 0.040483825528183574, 0.041992679308411995, -0.032720577681626964, 0.0013626486871566015, 0.0, 0.0020804314936920427, -0.15706552280944636, 0.008255320472925504, 0.017307611246601205, -0.015579597344972853, 0.00466056065119856, 0.023552485925543706, 0.02336182152288407, -0.08577667924824708, -0.13000208995601475, -0.003838878132897785, -0.05159851738247769, -0.021937288624315834, 0.0, -0.01947427001207802, 0.025336853031413215, -0.12796476164001996, 0.02431576606549544, 0.04163945204246051, 0.08553940969427361, 0.00987604004776956], [-0.05320659631719469, -0.00967935151086457, -0.013179818576612115, -0.014623819968070615, -0.00580876442908476, 0.017610064762196377, -0.029293016263601555, 0.032002116680362826, -0.02399851366949976, 0.0, -0.03460341119800249, -0.018913089201526505, 0.04587336553162785, -0.1273609301172699, -0.20723560379571734, 0.0, 0.011009201040610728, -0.053292810097730514, 0.00350566978978683, 0.014112519824899212, -0.010386260768536902, 0.02838581409278191, -0.024771683435171367, 0.014288770595541025, -0.02120819387661977, 0.06804582352720041, 0.11760479092948994], [-0.1684238889785835, 0.020686218934770587, 0.006685662879386928, 0.0372154505376659, -0.16699002323846543, 0.0004761720085026961, -0.0011641845486105647, 0.0, -0.02840059606637941, -0.02005176048513606, -0.004658274324452707, 0.008560481772741454, 0.057400982800947735, -0.030275721410162416, 0.06494420075667727, -0.018779781153442143, 0.019257521756464172, 0.25237682822664725, 0.002511911587207352, 0.01984253732211645, 0.010911255808818143, 0.008616597467423328, 0.009277968454001693, 0.01801403510917922, -0.010757416396586008, -0.004842737271751957, 0.008877790703879784], [-0.1846936491065827, -0.004522737847295285, -0.0373775924206241, 0.046156445671772225, -0.31274366000920084, 0.00687290120274058, 0.03331790680153871, 0.0026256776617035863, 0.00391419130424663, 0.0009987227477391864, -0.02599552524075384, -0.06444590006081372, 0.004136834358416541, 0.007835067547717633, -0.00011369261317513093, 0.007438937619746819, 0.0010362500243247385, -0.007133910679072053, -0.0921245151095668, -0.0046955677458116706, -0.004070503161455276, -0.11076272120904704, 0.020619796609134836, 0.00235338731408522, 0.005543526420265569, 0.0015672119664643246, 0.006903167546704918], [-0.014560916415976262, -0.0031610315847259342, 0.019348054452434413, 0.00983241140088783, 0.0034363469068142945, -0.014030660734756737, 0.01028839292317671, 0.004630624526155394, 0.01179985694007646, -0.06840900901551618, -0.07515958735448729, -0.0018161106896024454, -0.007166399700301712, -0.0016933689478743842, 0.11519015665734812, 0.3122373576712638, -0.05219273409744836, 0.008711150640957404, 0.015893114989368025, -0.024257199482495884, 0.015009250214124466, -0.0024845186453109703, 0.09670401565394546, -0.0146014492760681, -0.08944855158838645, 0.002621136016369093, 0.005316593474127809], [-0.017521751102264727, -0.012868775297830325, 0.0886802018667899, 0.008084574758505797, -0.007502393675328837, -0.004707365016357631, -0.049663485415078965, -0.2268064173605681, -0.11075355759176692, -0.015711925473448535, 0.07943731605319078, -0.015556520881246172, -0.007271923156222925, -0.002885213831437075, -0.011192359528872596, -0.10300873234445397, -0.1874075580939396, 0.013704461731145307, -0.009416727252658188, -0.002896230984521607, -0.0002970911603030872, 0.0048043028995642355, 0.001778340387923625, 0.0, -0.0028105472890686146, -0.012235631949503745, 0.0029965948980088235], [-0.0015983019327134485, 0.0752881152332683, 0.004803620430025098, 0.010141871932720346, 0.001438578181737489, -0.010642867062330797, -0.0052513383509174665, 0.36303902713655345, -0.0014902483635053122, -0.011075752354704963, -0.0040835697371091086, -0.1659524502950644, -0.007908201824653174, -0.0196473428261321, 0.009966481691919736, 0.0039057093966436583, 0.00772837276840341, 0.011854830385688252, 0.010235700031701905, 0.011910858185369775, -0.062052278036507126, 0.003338912245271806, -0.0013467525772592106, -0.0024808300653311873, -0.12632022915722757, -0.010745119318323205, 0.05575264047891777], [-0.0008443915524937191, 0.0, 0.0056316902293886625, -0.015422060063984739, 0.003598504544199098, -0.01460902280085055, 0.0020033032935634553, -0.028551137443370334, 0.036605236600542865, 0.08545421935169908, 0.10278567873813507, 0.0011057047598370532, -0.30007380674839934, -0.006078678828017524, 0.019267937501686067, 0.005837556182671857, 0.12625253739037479, -0.024385173706863224, -0.020876951957339254, -0.1450522007625435, 0.002019488216851711, 0.017540063616920117, -0.022050645558407408, 0.0011512353974621433, -0.009961519133382186, -0.002107400188965858, 0.0007338554320504169]]
[[-0.005656822577566859, 0.0026564161634109115, 0.0007008594279555711, -0.03315292224894528, -0.0036011178291917596, 0.053094955918181336, 0.0, 0.15646871259871947, 0.0060714875564362395, 0.024478224090153967, 0.03329568950658388, -0.019212204894486634, 0.003341076458330699, -0.005339122240873587, -0.037745858814596904, -0.004318391476042639, 0.005781968517541724, 0.19188388395809283, 0.23810370733836644, 0.003725768984012974, 0.0022975739340057974, -0.005642263312986991, -0.0025040125113499627, -0.14117042977696673, 0.0, -0.007216440551083206, -0.00348031819174802, 0.0024402238305283263, 0.003916876393347829, 0.002702670898493479], [0.016340732714061654, -0.0020626990456781894, -0.00467531007475502, -0.017578561020301062, -0.025754594390406484, -0.027777122078139, -0.016929098357284702, 0.04223329944937465, 0.0033013409924396923, -0.007198257185337811, -0.006575682399696608, 0.07923145946700641, -0.01708402808369492, -0.06375038873309911, -0.022875893939448104, 0.0, -0.004869113702096877, -0.11066233267510125, 0.00984816118129525, -0.005358430339318105, -0.37569797773302605, -0.014038333755395094, 0.02237101623514028, 0.007486452467890356, 0.021771074712049095, 0.01959063278806971, -0.014720470476175175, 0.015749974353523568, -0.011403641379927953, -0.013063920270267813], [0.006760027605682028, 0.009025770262185354, -0.079771227195239, 0.011523189276531872, 0.015283291920959752, 0.014530806611579654, -0.007423818704346895, -0.02037054645931607, -0.003951763722183488, -0.017662392427687797, -0.01563692801353003, 0.0, 0.0011967139185073484, -0.012352376159922738, -0.008170802799574077, 0.31666073517690874, 0.0038703366667334105, -0.003418347356123311, -0.009368916078502803, 0.0275341823496319, 0.0009785199570489702, 0.13843336756643917, -0.05358748595744994, -0.011390134786094762, 0.0062333286189349075, 0.014088205842258346, 0.016238285814235292, 0.014897756342618557, -0.1267661441699501, 0.03287459823982362], [0.02321614469829786, -0.01752091993424704, 0.0, 0.022538025175054554, -0.004876574007477411, 0.0006959543600372471, -0.022128613120081932, -0.24619846850533775, 0.014964843430869249, 0.008190909856465754, 0.0032361764982520506, -0.01827725666027002, -0.02876546535445254, 0.004174475986485587, 0.01968960754271309, -0.01977944602431347, -0.027254279035645253, -0.01746622449525434, -0.016791742294272625, 0.001977055045593248, -0.11061940144053445, 0.024640484043356965, -0.21168369648866345, 0.01869470325369538, -0.028088012593042645, 0.0016096344820099558, -0.028054270474810173, -0.028100062834078853, 0.013555259740725944, -0.017212292623961366], [0.008600285601336197, -0.004581146450376071, 0.005559404677460828, 0.046180905701747564, 0.0, 0.005668354519000616, -0.006144242705325645, 0.0071546912098808015, -0.02317370931865786, 0.12811348398732597, 0.0028920974719419536, 0.0, 0.004459124036293677, 0.0, 0.07364502016262309, 0.036761621265592924, -0.006754227707483384, -0.2942987248160895, -0.003262184248943844, 0.0, -0.00788640455593738, -0.08904283879832799, -0.14925222529194684, 0.005320578306665714, 0.0031728488537663196, -0.006145532936854933, -0.00564258679562924, -0.050683938793942826, 0.0015631554829167945, 0.02404066630393218], [0.0, 0.25092340802836094, 0.0, -0.009887230133481174, 0.006381286251498719, 0.0037413177844777016, -0.02024510390459863, 0.006476589237132041, 0.009139129643125429, -0.007145643749953745, 0.0796586321576118, 0.09357032073171938, 0.008312449310842518, 0.0014403873649306038, -0.0030006532122255477, -0.059932533130401124, 0.009766444641872514, -0.0097807612277254, -0.0015750896950009379, -0.002418232993590145, -0.22076547121672802, -0.005557584960758947, -0.010432454624100996, 0.021699963964020498, 0.007199646642866776, -0.0020320915899941848, 0.009271765798767487, 0.08448672593228898, -0.04940685071625226, -0.00575223135567335], [0.002825963093163404, -0.006976020677137539, 0.012013884720889318, -0.20458183723172724, 0.006426784423829616, -0.007883683273256056, -0.009470431970162457, 0.011630462892348783, 0.0002487098559859026, 0.016985035054661667, -0.012568524256170605, -0.01087398423467646, -0.11992567437237595, 0.023892968244320835, 0.03136113037509399, 0.01503306105596159, 0.010380039103629219, -0.16971593307350435, 0.012039218183021873, 0.19361991416861832, 0.026950445672054672, 0.0, -0.03114533334690641, -0.02113680041022221, 0.004602558373841898, -0.013435540676613207, -0.0020184911731906405, -0.005346937720280569, 0.010761210783790054, -0.006149421582564857], [-0.007569222931457865, -0.007508321925099898, 0.25786612131195163, 0.011271939753035838, -0.01424531663586499, -0.008441496250576348, 0.0022639206992112575, 0.010958902026353029, -0.007158331031662211, -0.002121720602719096, 0.006309863868293922, -0.005880686425416565, -0.11322068602680223, -0.009775188849075247, 0.01985923859457069, 0.023122187972615768, 0.003790331836747248, 0.0, 0.13783026627040174, 0.005168151420952116, -0.017170556996945346, 0.016463585908191213, -0.009537525867455068, 0.0007100467981757302, 0.005356767100668586, 0.018858922079259304, 0.021999030020855737, -0.07144142792489856, 0.10702368089338259, -0.07707656197736033], [-0.025760890648025992, 0.01706978447597758, -0.014735774067008694, -0.3010531546926111, -0.013701848805415702, -0.011122657564038524, -0.04814027600290732, -0.008102192907698313, 0.022099768195241867, -0.02426107244189528, 0.02348213698982862, 0.0, -0.028122273212084013, 0.012299824392142835, -0.020822479594818658, 0.010543841772620178, 0.0204519081706194, 0.06606110007464822, -0.01881957236292349, 0.029074232940622613, -0.019920900965458895, 0.006919999041193764, -0.014497385021154932, -0.009290229381298531, 0.019914601577518593, 0.12156101041744065, 0.028395203352782124, 0.025976469325993432, -0.0271957149471906, -0.010603696658839928], [-0.018502295832189337, -0.0038706627966795426, 0.13358427254806932, -0.16569414555489015, -0.0005582883785284456, -0.017780487387947054, 0.021230849057736177, 0.007978345343808493, 0.014291708488505746, -0.013370920984148143, -0.024121237068331497, 0.017599598915862262, 0.01610479530473627, -0.021699928291581138, -0.022282668783088485, 0.016451659888654484, 0.010546854597229816, 0.004949867280382334, -0.022400060143963566, -0.03785766602431505, -0.024015573451392856, -0.028604104546391715, 0.0158821794765823, -0.03331875237198648, -0.0267931799720744, -0.009347175272184656, -0.008781529568627978, 0.014635554186983878, 0.24486914972696255, -0.0028764887561656895], [-0.07962257441424847, -0.004606519040156305, 0.09776578857135541, 0.005158552224865389, 0.009637277260713385, -0.021110805312677127, -0.0017782349700349353, 0.0036866886882599057, -0.006700417134973685, -0.08732167950031777, -0.00409548219928991, -0.006708566718005313, 0.008763474513754529, -0.010018767245297381, 0.07131389796935986, 0.009239522122662382, -0.008646035673771351, -0.023596712950101018, 0.0023298334627948917, -0.004621133611183176, -0.006184364184015145, -0.05717656850683545, 0.20422667768368874, 0.002669401478175706, -0.024218914882965254, 0.21704288832307417, -0.002933623681856431, 0.008765381925057833, -0.0010973015573569628, 0.008962914193152148], [-0.00627522380073381, 0.0, -0.0027334530303478877, 0.006962696402938586, -0.007816211464371588, -0.007593558279931498, -0.004829653765377998, 0.051669110599213953, 0.0, 0.006289125698328682, 0.03792742828023092, 0.003653502073615074, -0.007458254463311309, 0.014860363054609306, -0.019546662784907794, -0.009375386606692515, 0.009418684819376572, -0.019856711086314597, -0.011672378704919686, 0.011291354912717336, 0.18834984962456086, -0.1191774414289125, 0.004329129306934471, -0.282650109187892, -0.13971194121321565, 0.004108395369011451, -0.007299367338447019, -0.0036584003018014823, 0.010874814600319697, 0.0006107918009654662], [-0.0008916097902918335, 0.012156818886621795, 0.0018156467013986594, 0.07616719347176223, -0.01077230376785412, -0.0009171654473465991, 0.004780404999545069, 0.015470779062392104, -0.09333542336769722, -0.015047375729153635, 0.09775621736814909, 0.016363035107902626, 0.01207026360280854, 0.0011553155715166563, 0.008746198125489678, -0.010675679822813868, 0.015732305200910252, -0.00015585734011999117, 0.010319018363789142, -0.004276976430519342, -0.015082985955860174, 0.022814732524186036, -0.010653876766704182, -0.007626213694649387, -0.11849280469263847, -0.23397984501722996, -0.1579183519991677, 0.005223408437830896, 0.005691208108723512, 0.013910984644927323], [-0.0029244075113154184, -0.017934318842645063, 0.0025323950296073107, 0.009337191819478282, 0.006583217873022959, 0.003293658720539573, 0.23740497021174944, 0.009690469515515379, 0.036409838261173756, -0.00421693985094603, -0.0020792169987585794, 0.0977378053072748, 0.016875352079188256, -0.00525131544121949, -0.0056674244094713595, 0.0036387760972274733, 0.006184589447691698, 0.003350774647086479, -0.05376693616799676, 0.003663219177294811, -0.0018014811811627647, -0.12840885196170873, -0.0043832746836208365, -0.0060885942437195265, -0.0054557928998519595, 0.04873716978101584, -0.22325299883746785, -0.04736287091037599, -0.0026026852974268253, -0.003363462794446756], [0.0, 0.009917677260244697, 0.0, -0.0328839991816412, -0.034171602940775724, -0.02242683017766186, 0.00014629062318535573, 0.009405436939299933, 0.004518896930120111, -0.0047628890127560655, 0.004105884421733135, -0.005667843527415778, -0.010321551626723767, 0.024359965627850328, 0.01051812539622525, 0.17750297284027036, 0.03446477200799786, -0.02722739755996489, -0.09785995167275272, 0.0, 0.002558652116853492, -0.03003241765759342, 0.04521887076905215, 0.33330249116919264, 0.002679204178520717, 0.009725456051050185, 0.03586821869266436, -0.002664176854562087, 0.014349371077360168, -0.013339053686531863], [-0.01218499672276869, -0.04721196610807271, -0.003842261722555065, 0.05276863185522017, -0.004301534297767734, 0.00387542932709379, 0.0004249325494787087, 0.01891213280774275, -0.009113634952629544, 0.0016618048938829327, 0.029117405324762285, -0.005032959090470843, -0.008407027327028948, 0.006081025263320433, -0.00474909038146308, -0.0004429657284806829, 0.01729873652302812, -0.005321122551268075, -0.011549138726767272, 0.043242351158043556, -0.29232239753205125, -0.011662142703593255, 0.12211959954696647, -0.007869732350663308, 0.0, 0.04261641533670711, -0.11084880533169357, -0.1100279021029163, -0.0058496107528176735, -0.01114424703074547], [-0.014598251743512227, -0.0690196612351742, -0.00020961019665919007, -0.012373542538499385, 0.0, 0.00299736703178597, 0.010944329489680188, -0.11261585467254488, -0.0020762529557302165, -0.003060390470318871, -0.13479800332822517, -0.000999595608874563, 0.01132562046932068, -0.013056362449488938, -0.004355521317237425, 0.12092223225465126, -0.00028668872151900015, 0.115608642232245, -0.010072163764250724, 0.2202843795882442, -0.003837686108429123, -0.005440273710350625, -0.012502027116154522, -0.060953290531167055, -0.014629151085509173, 0.005043008775294047, 0.006964432330266307, 0.008560261387499012, -0.014324027868148452, 0.008141371019219613], [0.0016364090560429768, 0.00899357367844088, -0.017176924154013933, -0.01339232861723933, 0.00701950514143283, -0.020849269791358066, 0.12177229716977625, 0.09934012223531363, -0.013240368761776396, -0.009296340189521975, -0.0011459149444496605, 0.011526118462519117, -0.003678053861182976, -0.0804181703239584, -0.01312500058870349, 0.0013755464177867035, 0.013891912736932657, 0.003671720734256365, 0.009893455728744947, -0.07267934132207439, -0.0010366585303530533, 0.0064447092905697825, -0.00015968620303626353, -0.10375625831881667, 0.0027020298371185324, -0.011115235487154268, 0.0020321454825331445, -0.32989257972416225, -0.006594470141745211, -0.012143853068985945], [0.00439754654295945, -0.008064191755783934, 0.014609642861241013, -0.015077480398112037, -0.002357395436324303, -0.015246419656381545, -0.014235238796340198, 0.0, 0.17792988717550437, -0.010058724583828817, 0.02035200821335402, 0.013230620997588845, 0.04229329367168012, 0.0015129208067686385, 0.00484374988858489, 0.04228354958263407, -0.010291553377169983, 0.008422488353885682, 0.0, -0.34472300930996574, -0.041943980139631236, 0.0007892579290700982, 0.013177370112576905, -0.006192063164924049, 0.007036755487656042, -0.0037809350972499685, -0.012316437011473324, -0.032493366580755134, 0.11764817641442732, 0.014691936654128362], [-0.006476248960341005, 0.0018995128014524891, 0.0, 0.007801575126713451, 0.014587462447429932, 0.03015209306135415, 0.0, 0.14131053032105714, 0.02569179013467239, -0.008138806734653716, -0.017692158057157403, -0.007821365902758259, 0.020781324218721812, -0.024454059726326673, 0.011529192040342418, 0.03678760768337464, -0.015631741348227462, 0.004599383234666459, -0.018155451735309622, -0.04224941399742812, -0.02564078825807238, -0.006128343361199426, 0.0035453795139178184, 0.03508501433755236, -0.2331838503180569, -0.014108375907396869, 0.08737840548115394, -0.0015828937002349652, -0.15758723159042812, 0.0], [-0.0016081068847923808, 0.00904663584990668, -0.011360319837332386, -0.0065357289691775206, -0.0014579183152525835, 0.03510174296405798, -0.0025073896252705186, 0.005771965625226968, 0.007107387837565595, 0.005042994524400539, -0.12639337979511134, 0.010330210373524485, -0.04617793062628759, -0.21176507505686615, -0.006301612499205413, 0.0, 0.00017093569207126218, -0.25969265930801955, -0.0006386902826251005, 0.05924250379717322, 0.042189189999634925, 0.003267673859848919, -0.06354129485913135, -0.0040876513038889, 0.005891255759041163, -0.02027816323221921, 0.0007003938931789357, 0.0407394799304797, -0.006771509214578769, -0.0062802000841308825], [0.0, 0.0, -0.01377422670462241, 0.059214347978865996, -0.13486385913934304, -0.0044689238292192745, -0.1655116091530847, 0.0, -0.013560203470866611, 0.0, -0.01507314817766286, 0.012147607991096649, 0.009188745632509526, 0.00024597698335189445, 0.11795504917810178, 0.027757602887785573, 0.021797148368291407, 0.20103944943989963, 0.02685355832311118, 0.0067681772653506375, -0.0046709379640991755, 0.03478517719588121, 0.006127187945216116, -0.014859196294650689, 0.011693444112957845, -0.0020423665354687487, 0.07073561012650341, 0.014418615133201267, 0.01044783016885817, 0.0], [-0.018112153618390085, -0.02375299904572227, -0.008892445408850962, 0.0, 0.015389544311922104, -0.1581350237947407, 0.009096749440521388, 0.014994947345484132, -0.0289951146702987, 0.0161113012141836, 0.03564505323940508, 0.029814988824795233, -0.01646701329160676, -0.1933167813276563, -0.02623873495476852, 0.02240642188943253, -0.002889388849756017, -0.02109733789850811, -0.027026540831268243, 0.014376015100101294, 0.028777115273164105, 0.01734591700270939, 0.012392255705739959, 0.021814625038382513, 0.018574126137935947, -0.01923255386702963, 0.014110492281961533, 0.029758116523117033, 0.0002984849983759497, -0.15493775811417174], [-0.006568051270180164, -0.05256518295286529, 0.00485863115095208, -0.008475416453640337, 0.004607044077757237, -0.0027786511195754715, -0.008880399024935443, 0.0, 0.013811708391504094, 0.004440595194141953, 0.14588831711772243, -0.008237929840162334, 0.013060446292389062, -0.008464122626975068, 0.014762313181984899, -0.06381267396389269, -0.16942596690218953, 0.0061973213439206025, 0.003860554253328271, 0.0031167698130864225, -0.057124373403396975, -0.0009407043586055288, -0.009900435717652681, 0.0, -0.2212908892850308, -0.006169821880692036, 0.13400672825633467, -0.0061906070705629035, -0.012549027436292926, -0.0080153176202282], [-0.01222970076867429, -0.05339472544954323, -0.0032799274133157516, -0.00472165276364521, 0.011770660185958435, -0.009462958634162986, 0.0, 0.0046597589508615145, 0.004514896645560656, -0.022920761191467166, -0.006916062942019685, -0.0037839395301779988, 0.0018376222172755104, 0.0030334015633945188, -0.000997417386613621, 0.08683748145833967, -0.019472475621272512, 0.11460123084261219, 0.002367940724615703, -0.004689509649920534, 0.011168754585749263, 0.08188642203704925, 0.007075123484774593, -0.11008611918646118, 0.005838141503869721, 0.3083693803163573, -0.006174051491116569, -0.0049905893722061116, -0.011026219680098127, 0.08189307440288673], [0.14687743219030597, -0.03730000501470361, 0.02876734239765907, -0.028211616061111167, -0.005272311755742976, 0.009871857530353198, 0.03579980944352393, -0.053351406249074945, -0.01418851300802863, 0.03165789419812117, 0.004118763829770547, 0.018287928558265488, 0.03502902680973934, -0.06633917313397052, -0.032601201964022004, 0.022548155435789724, 0.025683181723527803, 0.0, -0.027362108987664262, 0.001667171630403792, 0.02560426007174721, -0.1396401457951087, -0.007562070230179207, 0.033252230275770164, -0.029410717337819327, 0.019377740432459448, 0.032221398417910045, 0.01490061466089352, 0.05663092054271168, 0.016465002313622797], [0.02449470336754191, 0.0261624105559659, 0.058524449716014976, -0.01692100426761943, 0.03219985943095949, 0.006696653929177234, -0.20891058423783707, 0.0, 0.018627254575658947, -0.016432093090407402, 0.0, -0.030882385213891105, 0.03104132445116752, -0.03907546288969231, 0.015507648948422258, 0.02835821053538986, 0.018693798624369436, 0.0, -0.00180344915087461, -0.004029085470122254, 0.006208872907182246, 0.027160657681979394, 0.0, 0.010271529627831419, 0.019346128917954442, 0.2323690908234338, -0.04023568549621259, 0.029968027900575168, -0.03195547190726842, -0.024124156282450935], [0.015124287931650573, -0.013662865139335652, 0.005317781177426152, 0.015693868116322007, -0.005173133851917363, -0.016788172632039165, -0.015489151013371338, 0.00760810424625096, -0.12546407691791955, 0.006207004117849371, 0.002630100535628276, 0.016146484817876505, -0.01592519252060578, 0.2649298917828097, -0.011446335414497239, 0.0041030916805301874, -0.004674105844814529, 0.014817240349203868, 0.012620566252128328, -0.004704246259031356, 0.00941495467957363, -0.01259478324654237, 0.0012715278960598567, -0.001883600768697294, 0.004614789549866612, -0.21951491423383235, -0.1299649918805059, -0.014594944172679399, -0.014414224506520539, 0.013205568464514105], [-0.2546484420749397, -0.012300016788997338, 0.014038336824487139, 0.0034711327202033644, 0.00222099223832247, 0.006849429132223212, 0.007194385262658369, -0.0015468101241823031, -0.005769296544529653, 0.021705887127606863, 0.004626348354136133, -0.001855056397183144, -0.2636942439984722, 0.005552244998546562, -0.056882671452718615, -0.00376334903289503, -0.006164483393831752, 0.005307971848787792, 0.0021360695743301798, 0.0053399890714623975, 0.0, 0.0034634468666158037, 0.006024067683054172, -0.004392996830314296, -0.011760519141560987, -0.0062044532285321875, -0.12198847380886019, 0.14497731877727058, -0.008293020492192882, -0.007828546211084746], [0.006024844133189463, -0.010309002078478399, 0.16634790582901726, -0.010296660662083968, 0.004533548239051619, -0.007661669168482595, 0.0035145187511007505, -0.002723652034782829, 0.009281130559063412, -0.08355876704044503, 0.04770942170970998, -0.0016974541022435703, -0.003587837826536988, 0.0011909154082791315, 0.009214295351909261, 0.16530759562254532, -0.029463667431953756, -0.0048994938522295296, -0.2748592432654234, -0.026175670341592107, -0.006321886687439909, 0.0022523235012806885, 0.0015757319943259004, 0.07559108280484172, 0.008129406487822071, -0.0002912086466836186, -0.02414572766575302, -0.003046412225567644, 0.005673641720772927, -0.004615284857394216]]
[[0.22065861962368827, -0.00039968021422660203, 0.010422332511799375, 0.28479682038390836, -0.0005715780793351136, 0.008424374782160649, 0.0, -0.0005836086951739094, -0.01603965003337809, -0.008628816257779951, 0.0009514633909911536, 0.00032241336313643126, 0.004160682549533514, -0.0049277259142766336, -0.01656250453163738, -0.01377097774623488, -0.032661224442205074, 0.0490094515665759, 0.00036517421892157164, -0.010544568315565774, 0.049481463723598504, 0.150821864021734, -0.0027250039954322567, 0.00973858559664424, -0.0007500456014465734, -0.07173745614484686, -0.0004138524362300824, 0.0008447687611727419, -0.02956046446876554, 0.0001248286296005432], [0.0022291916686612645, -0.05990801713604945, 0.027120311660595798, -0.024738282962051737, 0.050481359562807145, -0.00104768879801896, 0.001733414517169037, 0.0009931210742265882, -0.0066682712745195685, -0.17799426787410494, 0.003058173643332759, -0.029075586496857986, 0.002059918664208696, -0.0005398876800850547, 0.048495828074869345, 0.0006127157643111849, 0.09068395973842959, 0.009142726398469156, 0.022440445633385517, -0.0006716853502856618, -0.001521422965037365, -0.05303767057316906, -0.0028452535889286028, -0.11498207137413129, -0.023303427672532913, -0.030154369568770233, -0.20785319844634836, 0.0018756371617878029, -0.001803679838107036, 0.0029284148387478627], [0.042006528212994394, 0.001459706067656161, 0.00033889241419969004, 0.030653979734814003, -0.0023361802614278123, -0.023594885180324838, 0.03568035345568345, -0.002719291767800533, -0.01302984011089478, -0.16649251979473953, 0.00012528569488736642, -3.733128987474654e-05, -0.09688391622956392, 0.06927220337817908, 0.006808577931581051, -0.03815654028586406, 0.004489406985397479, 0.00032391258568205286, -0.009367332848065795, 0.10016093226356967, 0.029236327418085264, 0.0022225407499758113, 0.034092172172420505, 0.001974614149122323, -0.006628511484057898, 0.014848760170163044, 0.0001852534230344944, 0.0, 0.0023789786353995584, 0.26449522530454056], [0.01599447342164019, -0.003417092466637764, 0.006424450970685335, 0.059257981639374416, -0.04133221656428904, 0.0, 0.02064452989313296, 0.03537637586533643, 0.0, 0.008630080277895988, -0.006746406670169466, 0.00424387767735, -0.019544068925711332, 0.004979483239297456, 0.12721843109448758, 0.0, 0.0119653155801872, 0.07577184647424524, 0.06759724804785015, -0.01059233917254688, -0.011905892638163395, 0.025988620935009588, -0.011584957802291795, 0.009123232238001247, -0.1892866598422635, 0.03011580586056881, 0.01233145387070672, -0.010155529451798404, 0.17050130189089135, -0.009270327489467588], [0.0021007478063129054, 0.03226411868097386, 0.050314234677716146, -0.02342328656370433, 0.08377477326049243, 0.0, 0.1198646635609512, 0.02491556793257518, -0.0015316727186273581, -0.01374471767968043, -0.012846829493538686, 0.0011277508426424155, 0.0, -0.014492957844999613, -0.0011389127828296277, -0.10622626364867571, -0.05919931618658444, 0.005361085562532531, 0.0, -0.008010518327168314, 0.004387804474704953, -0.017225394218757333, -0.08778508410297332, -0.02665250807845495, 0.01626249990696387, -0.09366125415621519, 0.07955724922292716, -0.053243227423556604, -0.056148279952249594, 0.004739280893191889], [0.16017790111844127, -0.00191270703415556, -0.00041043860359641526, -0.010983327877138595, 0.11045611505052078, 0.0010320451553954184, 0.0, -0.07446005746002116, -0.0005309069100082627, 0.04780048977599016, -0.07637870850679912, 0.0015696490053129458, -0.17217966310714986, 0.001565457228835209, -0.0013991499411715057, -0.003785517211219975, -0.00316280706529178, 0.0, 0.0, 0.08125616461417397, -0.004365564398328957, 0.08314728095673855, 0.07649040260444676, 0.002559825849397596, 0.0003902942487339259, 0.0015404331718456867, 0.002192441891978714, 0.0029079661533561556, -0.07734468505995168, 0.0], [0.0701094451502854, -0.1860814414465668, -0.007167187178305484, 0.052409751957520755, 0.0008738975734236125, -0.021940777942017525, 0.032819376144349176, -0.045100916184054644, 0.015134451823275415, -0.007476815072804874, -0.00022204329613752547, 0.010607427821937486, -0.005382751049226859, -0.0030179474229880265, 0.012942099655270585, 0.1891986644090264, 0.010916139027895243, -0.1544668465704608, 0.0013420893418656379, 0.010815188303384784, 0.012192896685288111, 0.0036753452568495356, 0.020088127090319145, 0.044348577617394025, 0.02416946828806345, 0.022609106511765075, -0.008075119165003074, -0.013251695372854491, 0.013105926431189546, -0.0004584802104764537], [-0.0006911454068919731, 0.0, 0.002578067917054935, -0.002173905739429286, 0.005806519093256583, 0.0032764471647678275, 0.0, -0.005257889000876009, 0.03879351575285197, -0.031041109668567504, 0.11687582503982737, 0.3088624187394108, 0.03128969272635856, 0.002469540944900045, 0.0021028684016373253, -0.015838791368520094, -0.002217397928956918, 0.002765831808831318, 0.060099716345863995, -0.007457160814553324, -0.0038615531325446313, 0.0027529046840236424, 0.0028471367797450508, -0.09271474788822981, 0.009535829149649944, -0.03259576072177692, 0.0003617334895626801, 0.01313928824813556, -0.015186451684097721, -0.1874067503596783], [0.016872130503621536, -0.0015056655097418557, 0.0, -0.028387763675924382, 0.22560611892555635, -0.0037629146930766035, -0.0013027237694095662, 0.17842509602321008, 0.003484571603661983, 0.13672522468490628, 0.008149987974408709, 0.002489303831900551, -0.0024843397094099495, -0.03764154546391106, 0.007259657613646102, -0.003263034853804242, -0.009477504355699726, -0.004456044032856036, -0.026266254186728316, 0.004832372447576391, -0.009174294355515566, -0.06000550133929991, -0.0020515065212672176, -0.006246050815845789, 0.004805287443976543, 0.00504198635852143, -0.0729903462025108, 0.007154319162120607, 0.0, -0.13013845394189233], [-0.003328601362534277, -0.21222387797170253, 0.028576320604615534, 0.01546458709342931, -0.06590641457681852, 0.0, 0.005659610725671641, -0.00199167488582708, 0.1304065318741828, -0.014351808996139736, -0.011281710034962264, 0.00915401532297589, 0.0037729477657910907, 0.021531206500736713, -0.027933838123839528, -0.0338289603912238, 0.006006046288018333, -0.0033811605889250734, 0.023865657958204577, 0.05277514669120672, 0.050331242702451665, 0.001771560868389435, -0.0031243227361906064, 0.019859261188532644, 0.0959859452786097, -0.027225342800415272, -0.06122967910539476, -0.012824639996412309, 0.05620788756679838, 0.0], [-0.01935983121369247, 0.0016519524894044284, -0.0014634924498272345, -0.017242360087363552, -0.0230771169339576, -0.0016942696597404532, -0.0013719336535844, 0.006413675192737842, 0.0026294954046413442, -0.006969442664244516, 0.00991712536978855, 0.0, -0.0033930600617992665, 0.23634156567097558, 0.003889240136183409, 0.009515896556431959, -0.013068231321826381, -0.0017787312377729116, -0.23943913561972638, 0.0004256541757860831, -0.0444143500363741, -0.005308091556750918, 0.0061771905703597195, 0.004603697927663297, -0.00965255081985828, 0.17385819366933022, 0.07919514297049518, 0.01144862455827534, 0.05775870182722971, 0.007941246164179062], [-0.041512115194517425, 0.004645722025201104, 0.0003862329930575284, -0.07449958022861858, -0.005364605906504569, -0.014312270970277341, -0.009357115745390368, 0.0005153327664444822, -0.006134063467509762, -0.001383163254172722, -0.006565622649023455, 0.0008838747821761511, -0.002174337046223127, 0.0032050888188273918, 0.03981862630397394, -0.05756159399349723, -0.0016233676958404975, -0.004650016538778994, 0.21919502113398887, -0.06490180524680582, 0.0026772052889409126, 0.0, 0.015680600851303156, 0.040742429606051365, 0.32362111655577264, 0.007866520369702694, -0.029990265796881167, -0.012510024751286706, 0.004215976721526822, -0.004006303297705184], [0.0017514678309062941, 0.06599228110084915, 0.01616383666624506, 0.0006150364575618323, -0.06467203599156295, 0.0, 0.0015575179128371637, -0.005896315855980903, -0.2685810416549499, -0.14211222382520283, -0.008086535984074213, -0.19655878048695047, -0.003301631784606914, 0.0007854270899264494, -0.03001303317084074, -0.003105770806291627, -0.0002972803827807337, 0.002598046197139392, 0.014162530151950252, 0.017473265449024215, 0.016656847005912717, 0.0, -0.1029599931271869, 0.00010614070227631438, -0.003059699492640167, 0.013573560994878234, 0.00418161882411953, -0.00812096630987249, -0.007617114743432517, 0.0], [-0.30142583109494697, 0.17659917029398056, -0.008026211320366518, -0.002975252194000598, 0.0026552276280928334, 0.021335126906546875, 0.00037250548227123534, -0.0012766744430134896, -0.004048700489264349, 0.013504426593880963, -0.21940663893821963, 0.0, 0.0035464654203833574, 0.0027492344085867657, -0.0018894504789078472, 0.004301866942154829, 0.0, 0.0022342592834891147, 0.039446756299691334, 0.004159420706900212, -0.06987136532587147, -0.04379305079970264, 0.002454148007242678, -0.002428479889279739, 0.0, 0.059301991851060935, 0.0002325653938494426, -0.007683362776004594, -0.0011016769846678774, 0.0031801400476232935], [0.23841067569753074, -0.0023414622909807272, -0.008342575815353139, -0.009530437769859302, -0.035533586314498364, -0.02498780966440094, 0.003149999616256794, 0.0037454274642580755, 0.00018326107168044635, 0.002516857163080796, 0.007949923877661485, -0.008597351339427956, -0.016983205276499727, 0.01968815050665844, 0.0, -0.0025321647874580917, 0.16579261923785127, -0.005655340295800681, -0.00012143751626451738, -0.00878803127981775, -0.23017376639329767, -0.008790907204027667, -0.0027396648667047624, -0.11235563885043104, 0.03266435547332684, 0.007905897456400416, -0.008491924047405295, -0.020158747181417337, -0.00249662596357667, -0.009372155578073079], [-0.00714479407070406, 0.0, 0.012822944854781838, 0.004369228878629541, -0.0017384803495270082, 0.00022063004660424022, 0.02860624430057727, 0.004255939805459184, 0.04641061659592601, 0.16360137211702286, -0.012602237206756874, -0.00763225847433185, -0.0298009018229098, -0.017158709304896574, 0.0849399636100765, -0.003323595881612773, 0.011403567915902598, -0.0030581862821006346, -0.006837160218744742, 0.005866447599895579, 0.001964973461570301, 0.12917167684688372, -0.0011270014760258313, -0.020367791337788627, -0.009716464981731406, 0.007057192882066245, 0.261629877327434, 0.0033341978811591223, -0.005233034071697991, 0.10860451039718282], [0.0, 0.016621954133413455, 0.02478698492834441, 0.05245517494779953, 0.007792799720754378, 0.014156167354838782, 0.14493554564122102, 0.049147794386083646, -0.015045799870582244, 0.024804034181347034, -0.005304507946630715, 0.022301675644020205, -0.0055813265637143705, 0.006967351445738258, 0.01465696028395536, -0.009698541282460805, 0.006194860207838895, -0.020627889212775464, 0.0051024215750652725, 0.011853698511395528, -0.014753611209558128, -0.017299778353318664, -0.010139737714345601, 0.2515384499680902, -0.013912025447961064, 0.017190349670471942, -0.012484308300425758, 0.10615590284023861, 0.09530040813291157, 0.003189940524698902], [0.0003332155779762062, 0.08167342330014017, 0.08310672870307706, -0.024395167592169816, -0.1966278869514859, 0.0008873984783836035, 0.018294484979435217, 0.10658921885853097, 0.0, -0.027474649962856205, 0.0006584549053449536, 0.0035299343174997984, -0.0007261020525690227, 0.008120268857817955, 0.0, 0.00028945393307443717, 0.011394620483355085, -0.30306423243281655, -0.00045894183747252805, 0.0007516524103129725, -0.0703273135092921, 0.0008610171953246367, -0.0003802226493991978, -0.0018063066383860755, 0.0019019449611180096, -0.0007357060069871778, 0.004747070538929515, 0.0010107181547728984, 0.04917549351912932, 0.0006783711923426545]]