[[0.20615596088846236, -0.004163503656758617, 0.009396516367926185, 0.03738497991078485, -0.015136571827289088, 0.022111286188173204, -0.009324367981823168, 0.08590745069454195, 0.08801138991989386, -0.005519654122525732, 0.22657483903387962, -0.015569326747451956, -0.07222447807869455, 0.016089936541748544, -0.006825758552484512, 0.00739912828770321, 0.02966938707176491, -0.00039539256359643764, -0.06431123910206024, 0.005242652860682341, 0.010519021354622035, -0.003950332381068132, -0.01738188377190121, 0.0, -0.009695388976917406, 0.01226630099182995, -0.01877325212541628], [0.0, 0.011324723897661404, 0.011305251833573787, -0.07460846220909712, 0.011883148501934535, 0.20422382482253074, -0.0007685688553590215, -0.0020763278303799885, -0.0026326543920536026, 0.012054465886324093, 0.001848696356378847, -0.010477704659199606, -0.14251123762563966, -0.006042678098121641, 0.023758233560103918, 0.008663997340888014, 0.0660071742466847, 0.20774182821873294, -0.1163886119962497, 0.005418073931663471, 0.04268046136881507, 0.00838256833943676, 0.0020653162353619922, 0.015765090173208027, 0.0, -0.005332707996098548, 0.006038191624502903], [0.01013808381073724, -0.016414544220985736, 0.040603825798823684, -0.043380265104598664, -0.008543433275727824, 0.0452606554246962, 0.01864088881915675, 0.030148687975080794, 0.031716382002012426, -0.013413525325111317, 0.04469904849572546, 0.004493915383624571, 0.06053778135148793, 0.0, 0.02125121246351738, -0.032921050547562565, -0.004987452685955868, 0.07348080569735127, 0.04942987029946952, -0.042383384822561994, -0.0431311755787175, -0.008337271690229497, -0.028382854646761, -0.04607885570790526, 0.25421064911215047, -0.007291295105473886, -0.020123084654575296], [0.03434129069070789, -0.0348431837936142, -0.06213933690385288, 0.008262567958491243, 0.05566419521191891, -0.02492409940390392, 0.0, 0.058188977631379056, -0.037170344534293756, -0.05398547603392186, 0.061414530805421405, -0.03922156492754054, -0.0945487272818874, -0.035964414391366634, 0.04981240550075791, 0.03229098520343338, -0.01890386408617296, 0.006935043292785534, -0.024873641683977057, 0.010387663017648348, -0.06874636904966092, 0.027954523812453586, -0.031594589540824974, 0.01697149244839792, 0.02087823480059876, 0.042418203520715146, 0.047564274474273846], [-0.06469310420427418, 0.019171774607576176, -0.017094013535814002, -0.021610668000956096, -0.020966844447750828, 0.08140611966467785, -0.0035969910527173183, -0.010110599585635238, 0.017021282461977833, 0.0, 0.010093801090352766, -0.011950592346718854, 0.01004622831293263, 0.011183212423742999, 0.08925865314729185, -0.002922843237377418, 0.020292274866088988, 0.02015768225770151, -0.0020362978356875936, 0.0, -0.025342563859931857, 0.001697833109265712, 0.004989280504158628, -0.2724820522233361, 0.021543949876218927, 0.049791280393220914, 0.19054005695459386], [0.022019825815637818, 0.007198850483392065, -0.009401221999505703, 0.01975197490251004, 0.0, 0.012127911637971875, -0.047314342181398704, 0.005942360395386257, -0.021865525017874785, 0.13606986398238263, 0.0, 0.0009659403267919909, 0.008839948027072754, 0.010556748527042744, 0.018471911849735633, 0.016571603501364426, -0.20556932014821722, 0.01436054867867614, 0.0, 0.016645030053668453, -0.0021781271437762346, -0.013562032723538217, -0.014203782264938203, 0.3684787884597589, 0.007488018097337675, -0.008500307736029727, -0.01191601604599173], [0.004041809326056629, -0.10884955165297482, 0.11268473995566637, 0.006113213887658221, -0.006581889085976853, 0.0013810091531570737, 0.006297135320878369, -0.06245348758746992, -0.009488247982836566, 0.07252521881970281, -0.03253551997214079, 0.004669282759360458, -0.019072937407693967, 0.012992943831805583, 0.005794336295801165, 0.0, 0.007046916538482968, 0.0037651476116390423, 0.0077866926111512915, -0.1836693631627199, -0.1673142363318753, -0.0048062636542086775, -0.06959540665988648, -0.0011205195586930275, -0.008036693449004102, -0.07856371024174641, -0.0028137271414130087], [0.0009382451123232583, 0.003969262061915232, 0.0039010600307072133, 0.02153883470248074, 0.015067828361736474, -0.0023462590844077038, -0.0068432431339952, 0.001665379389788225, 0.014911735576868672, 0.045079804449565636, 0.08012726247986596, -0.01726285732603917, 0.30432690561260034, -0.07013618340036959, -0.019080520151680914, 0.005240533922863528, 0.009072083184983436, -0.011726915956714053, -0.003333786449942527, 0.017776735959442406, -0.07625546217445846, 0.019851752824981524, -0.009089924466450763, -0.009157472562369246, -0.07745631387733169, 0.13499454590983143, -0.018849091836286785], [-0.0009137035689133177, 0.005755644564664148, 0.004958324208873911, -0.006836509193626355, -0.007220337919600133, -0.004373028800841181, -0.010223429688997972, 0.008559148495751453, 0.02199940597691933, -0.010569706810072473, -0.007624858485244574, -0.000773624481348149, 0.0019613927637405293, -0.05755747988268958, -0.00035655170540649156, -0.08848766015260941, 0.00836266206105896, 0.0025767896042087186, -0.00314632203588427, -0.006429587467487363, -0.006417159598805522, -0.049671073748007194, 0.00021307069951941558, 0.21911111841295008, -0.30371307829507377, 0.1557367649360874, 0.006451566441618283], [-0.011410331161481142, 0.011920935851228092, -0.0037980823929059113, 0.06953740994705682, 0.0655643616546782, -0.05669328154467085, -0.001863010003717567, 0.24292900052800406, 0.009389406602757232, -0.011517656495962036, 0.0037206779468668956, 0.009577064783945901, -0.00047550470161610817, -0.07599012666041824, -0.0005898914830735262, 0.004810963357549139, -0.18944459330131688, -0.008978420834733306, -0.005932693905375524, -0.009320617589122261, 0.008604936226027754, 0.03240204862651011, -0.006662960503961916, -0.0007046457864879574, 0.00010479763240823371, -0.025310662807284903, 0.13274591767083954], [0.21997091279331268, 0.024366905393351998, 0.024194708843225055, -0.0005206705925923273, -0.009036891589679838, -0.0038315611068361973, -0.029320701563759398, 0.12323087790992733, -0.004270797907494265, -0.0035738043218602918, 0.018863542821096233, 0.168433027547128, -0.032101172304011216, 0.03626205185538627, 0.010276540117847196, -0.0588323563110761, -0.016416422187569467, 0.025658498448779914, 0.0, -0.026023383495988175, -0.0011318692546911618, 0.021291164384151476, -0.03438387685493803, -0.012585778845086795, 0.03215334258293439, -0.027780583954827246, 0.035488557012448935], [-0.09971571064739489, -0.10331261422138867, -0.025861339596104656, 0.02894630832306843, 0.01822035995458364, 0.005131020141354995, -0.2015521549549787, 0.018574982389551752, -0.06363560128884586, 0.21271135098109015, 0.0015145828579144916, -0.0384366995119892, 0.0017231319186773036, 0.0, -0.000655355347614533, 0.0008528015734458623, -0.0289531419651179, 0.001308055582351713, -0.001355139997498779, 0.0029481104722379457, 0.005130759666019751, 0.01219038598251912, -0.005215850795419534, 0.0040858915887113465, 0.0, -0.1162392985305091, -0.0017293517116115367], [0.0115635469861583, -0.0014482152748659118, -0.006876912076088605, 0.2979974044324987, -0.003727949604239936, -0.01672882494767839, -0.07837594586388444, -0.0038820872512019, -0.004781604933503556, 0.017645147065481568, -0.01155467609639248, -0.029266827646149615, -0.013841928634217682, 0.016711209039668783, -0.013862715080531622, -0.013843942371239258, 0.11550408225457517, -0.002602940281350365, 0.013300085092502429, -0.007124908407699118, -0.024561883598370568, -0.026575763002044787, 0.009475296444161448, 0.006792514619701811, -0.06631153418101593, -0.024432070197500377, 0.1612099846172774], [-0.011168687506832132, -0.007787740639477668, -0.0012039399716437776, -0.006564290623726117, 0.010782637488178688, -0.026992122372711327, 0.005193105413719514, 0.0, 0.07941756412345287, -0.0022876868654627524, -0.16159131608379826, -0.08477831541246703, -0.0014061521981602301, 0.0, 0.22048914721732024, -0.22052170199104604, -0.009548042005867346, 0.0024585868964313753, -0.009274749736596822, 0.03785819283838435, -0.03505102363000749, 0.01213826469065427, -0.030266158576721512, -0.006603220251257605, 0.0043070791096705, 0.010499786790424048, 0.0018104875659879585], [0.007851338636776301, 0.011204033028222446, -0.17966183950618386, -0.011016124593658307, -0.06544119513563118, -0.04300674664824018, 0.01899556096399021, -0.006917560071530002, -0.004583211454894277, -0.006940198827966921, -0.14733971289855, -0.00503506237539722, 0.06267139313440993, -0.010981641945157558, -0.0071519606331253965, -0.0015778488886969355, 0.022792275550894466, -0.003747290834551997, 0.0005998010047973104, -0.25633320921825614, 0.004299439526376112, 0.0793450783799724, -0.02375394292493939, -0.007381611907734521, 0.008482722434011469, -0.0005342338108067544, 0.0023549656652287762], [0.014236457834715723, 0.13398802251967143, 0.016669046328042197, -0.019524270759730376, 0.009077436721708862, -0.00990094867171051, -0.010710394388793744, -0.01127696454533341, -0.010160147084055682, -0.004259312427149979, 0.01812327823903047, 0.035434566645044956, -0.059171832792551726, 0.14857904304344793, -0.0004828072694126605, 0.0, 0.02925177651759342, 0.0018787926329231813, -0.014887562224828916, 0.11309602877099585, 0.01315952178289578, 0.015270150865108, -0.01887653536183987, -0.17311520314044065, 0.02596707639770246, 0.08928270419406684, -0.003620118841205378], [0.02609770311455565, 0.008320982895648836, 0.003606003001102816, 0.0617858248180497, -0.004282611107239358, -0.005642794772115122, 0.055531509224703825, 0.0, -0.0062651759401359175, 0.030072843640711194, -0.00827772492768273, 0.009190333166497401, 0.01240679782681178, -0.0014028918324755866, -0.04794779480099156, -0.21898730568084288, 0.3137836011439791, 0.003474759118940995, -0.004763820739740419, -0.1204058476189407, 0.0026465147219117495, 0.007528778004582481, -0.0011418569511745216, -0.006226967406711562, -0.002987688761942282, -0.033779350283679795, -0.003442518498831892], [0.202709128851283, 0.0075670909447351, -0.008907455076946378, 0.0031164596887802145, 0.011084058675654053, -0.02230854028033872, 0.08789574924649027, 0.005466326829088565, 0.01051375006374922, -0.14653497598289483, -0.03656408862534459, 0.02059274556653664, 0.0, 0.05333320227278695, -0.0019990779925211535, 0.01381501837702832, 0.0035019964878190385, -0.2531111244841904, 0.022029530593444334, -0.008750640502813944, 0.020955576062255326, 0.003967378351143461, 0.02249214198263302, 0.003344383725014687, -0.008800290940189068, 0.007539962192183062, -0.013099306204135531], [0.060051708242607846, 0.053354323631068755, 0.0016663085710917431, -0.00015273862749989577, 0.05704034690078237, 0.0024916906360490524, 0.0028991258685488784, -0.03248863741552167, -0.0027683139141390783, 0.0023801860768525515, -0.0021324652708007022, -0.0007689187253800695, 0.005277915870276602, 0.021285301280327087, -0.0015321132646849832, 0.00224958804495144, 0.2538324415779715, -0.007420184109806652, 0.20634379949204723, -0.13158130342332938, -0.023189896774412293, 0.0003206186919716428, -0.00017749423870335232, -0.0013428378163329881, -0.0032055835259727473, -0.12387549357927909, -0.0001706644295903454], [-0.11708127112839317, -0.040523347334234947, -0.047562525486532954, -0.009997262748291783, 0.04164576149760096, -0.0055363881678899595, -0.11540152542626321, -0.04951925588759638, -0.01046602293867462, 0.03882110981527251, 0.004579215452139, 0.0012859077231283725, -0.026563856640968386, 0.013402561958124807, -0.024229363757065275, 0.0004700519881073964, 0.03856999510861734, -0.016453880089748515, -0.007462566794314092, -0.03322668550603382, 0.04617893169884758, -0.02689133726225877, 0.04902225857839949, 0.19610674052494223, -0.027162618297528113, -0.011683215503513502, 0.0001563426855128412], [-0.012680277019783543, 0.008768580200681386, 0.01600717749430122, 0.10210376018026508, 0.0002225418492749279, -0.11482391945547289, 0.009649993260373893, 0.02414859929377596, 0.0, -0.012419262058258657, -0.0123552149579752, 0.10313389893367741, 0.08495919677134499, 0.0006072254000595447, -0.013663234641812471, -0.015266098962771622, -0.3292290614319778, -0.012669674867405414, -0.006686023403721913, -0.016418256618457205, 0.0, 0.019221332429621703, 0.004942364353634474, -0.011852106491397285, -0.054077614458063625, 0.00909838090879138, -0.00499620455710012], [0.15693197292589708, -3.6573088291230335e-05, 0.0, -0.0020463636667889407, -0.03079051368298951, -0.016640787913981527, 0.03390908275354652, -0.014215734780005991, -0.008110641111890679, 0.0203971145789879, 0.07488062125684224, 0.05517991769461878, 0.022716758746352348, -0.024515645510926654, 0.17389894232553268, 0.05650349744946046, 0.01493376046973184, 0.03763786979832708, 0.01977687540094229, -0.029084046711096958, -0.0220045292456401, 0.10581003283560865, 0.03104562443565225, -0.020546010260782968, 0.0, -0.014581082460857342, -0.013806000895247842], [-0.023528078694335538, 0.012077397425937518, 0.01634156409140183, -0.020618916549926897, -0.19256556073008432, -0.022767567210694614, 0.0037193781322813054, -0.015996185831271357, 0.00183211004319716, 0.1877515769626175, 0.004812378271200614, 0.009951907917163107, -0.0011859486782769336, -0.29175750810895096, -0.011506184192742162, -0.011260588360856244, 0.015552219917759994, -0.021595622912903595, 0.02786919925188038, 0.015063679653647322, 0.02263904115584261, 0.003341473079001457, 0.008729718067652124, -0.015931829441052738, 0.014336258877956995, -0.002926854634901661, 0.024341251806463092], [0.10280911850623597, -0.03604490443195241, -0.03048909688342339, -0.016915209352650513, -0.013762536873492676, 0.011654570141272715, 0.027007377501403845, 0.009901173947608699, 0.029706123435282374, -0.1950094731101093, 0.005186799904888332, -0.01602541838156839, -0.008825296650675428, 0.018842999821536095, -0.028795213368529016, -0.05820797249921107, 0.02133197635036791, 0.003883818421592365, 0.028362351852769124, -0.024904957403958507, 0.011569510250838537, 0.12585357663504618, 0.016180794832206653, 0.03282987269043615, 0.020373300008322177, -0.029107145297429148, -0.07641941144719305], [-0.04301926368495436, -0.009779029290326076, 0.0011207722441184977, -0.002767057783948667, 0.02796137955966221, 0.00546994283296458, -0.034003866776076565, 0.0, -0.2590888086303177, 0.014582823084550068, 0.04188319233749083, 0.004049146865680935, -0.009873607093943448, -0.008629118316237016, -0.01906847250385477, -0.028741245277628127, -0.0655497039333951, 0.04550851593229075, -0.0027247383882576044, 0.03285043279450064, 0.2257392502534378, -0.005612925514933275, 0.0258767366956413, 0.019455968196857416, -0.016881021307769487, -0.032029858353234, 0.017733122347928825], [-0.01736734550931657, 0.014734576984419556, 0.004609955433107553, 0.022734283173935495, 0.026313640016783546, 0.009994519916938685, -0.020998308628097546, 0.3065976109291428, 0.014995905716296845, 0.02013352715191787, 0.00997813190802911, -0.05985657360599137, 0.14625120331566288, -0.13023192774026893, 0.011952890854402615, 0.008278355016080801, -0.007085679215621811, 0.002623024027136445, -0.00555530046636088, -0.005487595698384202, -0.00043477367281556927, 0.012694352668221755, -0.03385968269612631, 0.03600695293994726, 0.01628244611310786, 0.03274863681106101, -0.022192799790824766], [-0.007155857221283793, 0.25156973018299816, -0.012498524318497208, -0.02916037050208771, 0.13117779910821295, 0.014799551645253928, -0.011740599569750062, 0.0023852234512951134, -0.04006745067503878, -0.0141540937320988, 0.012215513230159852, 0.048241198080665314, -0.0030900556841833935, 0.005476721864608851, -0.1478535202197733, 0.07118472125575723, 0.009567762665752056, 0.008573792578232669, -0.005050153240968835, -0.005197495306018207, -0.00578810923766465, -0.00922720714112702, 0.026509825603572457, -0.06901775710967925, 0.001181331957785078, -0.0004075784550530096, 0.056708055962482316], [-0.0015071163034414935, -0.011325790823922589, 0.009143939546243462, 0.06195736809581995, 0.1641215603766411, 0.2356304038257143, 0.00814560508967031, -0.005805546079385653, 0.011728835323740864, 0.00739504210997013, -0.011071875928989828, 0.01229828453580499, -0.07999674487601324, 0.007310660680522096, 0.08082087262735195, 0.006464795029808827, -0.021113493756786585, -0.0017964489758919857, -0.0031151943840715115, -0.021547229689002835, -0.0016255583062342017, 0.13375379325740938, 0.05798735055429665, 0.0075588150222395505, -0.01071505873514041, -0.015633816647232825, -0.010428799418653191], [-0.007632183207800611, -0.017091464822514738, -0.029912913808615167, 0.05038152988984421, 0.0017097085363279975, 0.022079870316478938, 0.03928943060578523, -0.006213867008542975, -0.000644820251983164, -0.004136929091398772, -0.1425658611420843, 0.02676822473138345, -0.027947633117191246, 0.08627982458494976, 0.004456851657272111, -0.00837408483525347, 0.04502853179689851, 0.04445391368449172, -0.041965401094773196, -0.03406441305048382, 0.19348683904249414, -0.03757518489063053, 0.05209679333212013, -0.032622683171449875, -0.009598708324047552, 0.006923301873087244, 0.026699032132097223], [0.11797222620621985, -0.012182159613308426, -0.014544999213474354, -0.026045484609602966, -0.034915241586234706, -0.008530123499890898, -0.0031219151896509814, 0.15517967441626065, -0.10208376548268859, 0.13415760587466993, 0.002725373108102755, 0.016768554223052318, -0.018679178242638306, -0.008601195915597359, -0.0009323694722297005, 0.01567372060694524, -0.024341357671415945, -0.016756002437511453, -0.00993139022761331, -0.016707920396970458, 0.0016367906322984356, -0.05768468690418888, 0.14999021980519017, 0.014611516931321034, 0.0, 0.017832179915036935, 0.018394347817886195]]
[[0.009365107008341988, -0.010944897965358087, 0.013553841680308543, -0.003815132855994459, -0.0005367757352938756, -0.009184622517126057, -0.3587011534482933, 0.0799346058666321, 0.002823097002097133, -0.005079977366280189, 0.008520161315746212, -0.006754233672824438, 0.06680794841743548, 0.008538300689162618, 0.004192337232643817, 0.009821595598899502, 0.006626918192097656, 0.07058020014291518, 0.0077313741067746265, -0.0039385824185349015, 0.004121671961054505, 0.05469162845438232, -0.026845109148879675, -0.0054540991990337994, -0.027048459907265295, 0.0005919324602978455, -0.011020212871256142, 0.00929777379967617, -0.16387617456799997, 0.009602074397393886], [-0.03965535975119717, -0.013941844393975942, 0.00561996578113137, -0.021554048409809096, -0.0859568211018279, -0.02674615382176178, 0.019537793118186313, -0.028870998945852152, -0.023920586108834293, -0.030254445933122914, -0.18096127138471535, 0.0087995262764339, 0.02032836645208663, -0.008318059644105277, 0.011095086922012387, 0.00568245652251093, 0.002447164204398347, -0.00026451094415374827, 0.006978470753563826, 0.029920393940310416, 0.013777376099463088, 0.14728788140857732, -0.1676586362034949, 0.020920377497124776, 0.017185713288056115, -0.000883356066275819, -0.023242659726224236, -0.01858425867588259, -0.017270565648903714, -0.002335850976007442], [0.006153192501842056, 0.0317241046678806, 0.002763153285565338, -0.03441670311426264, 0.029663525691788158, -0.14267653031628375, -0.004547118432240489, 0.32383215908399, -0.0315975675148585, -0.04914194666397344, -0.024674063989090986, -0.01834571884981087, -0.011050708114084496, 0.01753020237171446, -0.039126999249428765, -0.006023072066538586, 0.032284155436957916, -0.0263234572371691, 0.01207186257479778, -0.00807201076786773, 0.032027548232203745, 0.0077829968178088176, -0.024410294073027788, 0.0, 0.011760693509240434, 0.015505746812525137, 0.0008481764771759015, 0.007248553728036787, 0.0, -0.04839773841983573], [0.2098913330115417, -0.014374769513064128, -0.00603749398560227, 0.011140010488242579, 0.028573631994089705, -0.010286412094962293, -0.0020538870269614156, 0.009741032764999647, -0.02797493882171143, 0.10727963653968697, 0.011614865750956915, -0.011347300145873785, 0.033315941525518, 0.044161992364774784, 0.018356808647786788, 0.0, -0.014209437926040753, 0.019031708529231056, 0.27301960545026777, -0.0943829057882242, -0.004491635886375899, 0.00969890466099689, 0.0, -0.012542760056292663, -0.004831402972967068, -0.01135366673955744, -0.0003258206335440154, 0.000558268141606689, -0.006467153216936875, -0.002936675322186423], [-0.008890146245206216, -0.01648428282399163, -0.03827353901716866, -0.001173659136171476, -0.011318732535932125, 0.018146563608561272, 0.015077208553291822, -0.012500180886802534, -0.015733725611621393, 0.0, 0.007372099990111455, -0.005550930174754239, -0.01436061953466411, 0.0068393610704826045, -0.006355027278739646, 0.008452140690391996, 0.005147703703561331, 0.025461182136093136, -0.010690222068614091, -0.014080184751013467, 0.024329790923072428, 0.01848316653767411, 0.16896411728329605, 0.28359796662390085, 0.018324667870068617, -0.19065579430197982, -0.0020630039310821934, 0.01803062522965152, -0.030343524373799297, 0.0032998331083020226], [0.020090740637536297, -0.013433183988458306, -0.0053463432177751945, -0.02198790871005423, -0.0028896675079577087, 0.019412699567312553, -0.050346213536554975, 0.033087899530604266, 0.0, 0.030016538193852967, 0.010681166273015219, 0.0, 0.042999760245593634, 0.024033122890169654, 0.021702272955321802, 0.2434608388314113, 0.0, -0.0029423372713939465, -0.017747131228280085, -0.017320833983452594, 0.15079654471131082, 0.01417741003515933, 0.01915997276902024, -0.01667792901066317, -0.017425146790299762, 0.007881143165583915, -0.0750506532640662, 0.1066910417395793, 0.003995964922525754, 0.010645535023046906], [-0.017492043063827782, -0.00832171542670897, -0.005265023716266556, 0.0040001125901209505, 0.014327901777934983, 0.017658913034675046, 0.01439423880858047, 0.020594948782934414, 0.004804014255992094, 0.1912466288033772, 0.014572828134209374, 0.0030670856100610813, 0.10865376964872414, -0.024334374889422274, 0.02373398428991372, 0.010272336289021558, 0.004796060422137913, -0.2028931064113633, 0.01423366523724361, 0.16579885702635222, -0.014496271797810994, -0.015607255143953712, -0.011622521432425956, 0.00449810481153784, -0.006144609595643892, 0.018379377626759057, 0.019187093198942927, 0.020859800106510562, 0.01874335806754769, 0.0], [0.01645492772194031, 0.016571084559162258, -0.014692561909676856, 0.007064890862520414, -0.011133721269392893, 0.01673106780200337, 0.2206464913640967, -0.010847650128980571, 0.021989251750415998, -0.005401221452957751, 0.013911362306653302, -0.007200484072228983, 0.12458069810810388, 0.002254060565205423, 0.01723064186538592, -0.2746912797269879, -0.021301806736946167, -0.022061732123494215, -0.02252519277680499, -0.05095346557062662, -0.014510358670658929, -0.010452604229680893, -0.0001645586737612791, 0.004288428035405327, 0.014997190699498356, 0.01028852023169759, -0.018822622150416964, 0.011999932199829184, -0.009986352436109227, -0.006245839999357595], [-0.009443824446453083, 0.014216362202326105, 0.008771485751292113, 0.17346303317289558, 0.30170092854706837, -0.016150940099668176, 0.0, -0.10822765400270518, 0.009063803144170416, -0.006341996605886773, 0.002206867678830969, 0.012039708514868503, 0.009669553541064508, -0.0021372050785909017, 0.006327067754998336, -0.011052159396193414, -0.01783957875367736, -0.0012711012849072082, -0.01140624065088673, 0.010098555774497692, -0.006194104346191729, 0.005093372412321815, -0.15878663538686102, -0.010141094824494913, -0.006398026071753661, -0.01656394633731651, 0.010909882513862471, -0.006668453565939577, -0.03395776864745778, -0.013858649492819184], [0.02815582935192985, -0.0005136177214893635, -0.0161971044451264, 0.020475037717598087, -0.06564082819801073, 0.01344679036672786, 0.012523435340418977, -0.011269684978827379, -0.01979727271915437, -0.008617568702379994, -0.026446418770231267, -0.014128910902670367, -0.020284657636369764, 0.0008098139822201152, 0.012580698713827033, 0.016137092056869893, 0.017400616311329675, 0.017569352800620247, -0.01483662047521836, -0.012721831183284592, 0.33184409430826767, -0.007467081825153836, 0.029464375236162906, 0.18868019843315254, 0.006513516144107663, 0.0298693258703225, 0.01476652582478406, -0.016761648955368334, -0.007523718024962326, 0.01755633300341379], [0.010404478696832717, -0.038175172214391664, 0.0046380594800976595, 0.01837479050835938, 0.0015387239609461856, 0.017452345159361424, -0.001386465668536472, 0.0, 0.0, -0.01874029994691115, -0.017507420201680182, 0.0, 0.01251521810420823, -0.017847628854098598, 0.2229802059309787, -0.010204113438290665, 0.02352825900284259, 0.018479177658308067, 0.030878942142310684, -0.0153664465061378, 0.0019156707776423077, -0.0208158144765269, 0.014999543989539985, -0.014637513645420716, -0.03507440031720189, -0.011793927534815816, -0.2367796074585104, -0.16303795102829782, 0.009600471825887968, -0.011327351471864144], [0.00849059992185459, -0.05035823054711621, 0.06680102559075936, -0.0036715430798721156, 0.0, -0.007628986725915734, 0.0, 0.03731573844167741, -0.024069992284342503, -0.0032827499158926384, 0.07629769947879231, -0.008399065916673183, -0.005573445131867381, -0.014404458168006605, 0.011081978763304657, -0.19906583291467447, -0.09256356236623002, 0.0, -0.0021599988937428287, -0.13050046970278925, -0.006093524381559729, -0.01925271725293781, 0.0003718029893164271, -0.00023663715089445843, 0.00255108340590324, -0.00808075929932762, -0.023767473987239978, -0.1874994531846966, -0.004134627199945326, -0.0063465433046674714], [-0.003264496666788244, -0.017964635588983733, 0.0, 0.008281062912601798, 0.002544100800571081, -0.00799453771736983, -0.12733043121221937, -0.008178396573185816, 0.006481568275365012, -0.0009894165647953803, -0.0010317358678368308, 0.0010702511782838564, -0.3237964808295724, 0.0, -0.10406579171637655, -0.006778126655903962, 0.049431259421250186, -0.0074681268626210036, -0.1621554526560161, 0.013565339348919089, 0.0, -0.023566740811407697, 0.020651962830876548, -0.01198851072639314, 0.00603762831557354, -0.01654816303091497, 0.019536327783490855, -0.022131537902439064, 0.027147917750243975, 0.0], [0.03514620293721554, -0.007930997586447597, -0.001581426355795734, 0.008528760973174326, -0.016896940193706623, 0.0048884264000865875, -0.006704588174103141, 0.0067599189350141566, -0.006993489307901353, -0.1288965841357885, 0.009038189673182283, 0.0028625024647175286, 0.003782205406208313, 0.006883897733553701, -0.00240899109683829, 0.0006707157050289286, 0.005796933764119017, -0.008191818874485956, 0.001588212000782564, -0.004389743691212931, 0.25999308929336984, -0.24769647982595783, 0.005687316333507996, -0.009297380542589943, -0.006128365689871753, -0.14295626222812058, 0.03603878205966241, 0.007977517960704117, 0.007571749563404324, -0.006712511093448088], [-0.011984985078174368, -0.002131474800049048, 0.0025150856761842633, -0.025291983439541806, -0.00309390054742505, 0.0, 0.0002648515333390656, 0.000680294975244658, -0.015153962654619846, 0.2638760965733056, -0.009082063173253732, 0.009061356583695782, -0.00824015638380055, 0.0, 0.07805513562886598, -0.012930577892885136, 0.004406415408152341, -0.043480917031084886, -0.08709965311444466, 0.009881577137998466, 0.00760875285800738, -0.1449530860871921, -0.0014708335223349884, -0.16205351067097717, 0.02675719962444974, 0.039922837955242235, -0.008202979418218318, 0.005451479499222162, -0.005940309938856066, -0.010408522793434656], [0.0031726200994586177, -0.018040757806465944, 0.013713995539458153, 0.002030493278279246, 0.01544488345025609, -0.015981890701445404, -0.0016581530888739899, 0.06393866103492206, 0.012008650533883496, -0.013937705823973844, 0.01363593766343821, -0.007143630073179952, 0.005116970209633766, 0.014606859813291977, -0.21220250233043828, 0.009082987091365987, -0.01897302116090065, 0.001678731695527715, -0.0029245117468941857, -0.04104542975363913, 0.007452176193451825, 0.003606595972434109, 0.003101569845403657, 0.01046978868519851, -0.1264644307887932, 0.2993671994179757, -0.00686854611356354, -0.046484500835052664, -0.005397332040749401, -0.004449467212050605], [-0.021070194263379485, -0.0115538444164073, -0.008835114990565595, -0.2436742688985338, 0.008553872184898064, 0.025326926097202107, -0.015889185205799024, -0.014377519362941793, 0.004472519400288926, 0.01678438613097054, 0.19387758850229253, 0.08685871288441592, -0.017643050736692523, 0.0, 0.01220228912101465, 0.0008981549815450298, 0.013300072293300252, 0.0036611175152130165, -0.02224320122367385, -0.051847800150625976, -0.02905840360641438, 0.02204534055555856, -0.00030155731524436955, 0.09756015824339376, -0.01149287897656939, 0.0, -0.002785855975800141, 0.005075334891667258, 0.021748853557930464, 0.036861798517661526], [-0.015740742427687294, 0.005993358546279138, 0.025501336754540683, -0.005430976376040091, 0.005338207281772714, 0.00664571700851547, -0.015553079318810897, -0.018120196651106268, -0.09983232507612422, -0.03784276898664109, -0.0013047669619064707, 0.009277469706421713, 0.0902263420811744, -0.014450032614747775, 0.0, 0.08356903469405157, 0.0035648879259273973, -0.006932672352283551, -0.006466552136518927, -0.008755316880446552, -0.12241464037791297, 0.007417276566719605, -0.010309419715765544, -0.0015546520080220651, 0.00452144191916439, 0.041422436795435065, -0.042766957649023475, 0.003763959977206651, 0.016178429996362483, 0.2891050012133916], [0.023928305103385904, 0.16625786379569196, -0.015061891337180965, -0.1121766872658239, -0.003045312650998599, 0.011868781150003989, 0.01325443674176556, -0.01262428200202353, -0.022754367898477013, 0.004274728010001751, -0.00980204513848213, 0.004181397772380998, 0.0029958990852676382, -0.0032884712790325014, 0.005358141389559194, -0.000866170503025343, 0.015553657458073768, -0.01607065082405827, -0.016258252143070008, 0.0017872599032427833, -0.2585718573193793, -0.012257340217207377, -0.005096399717059822, 0.01080321350358737, -0.21490343882744167, -0.0032676733658302663, -0.002746869427920544, 0.012550269604962102, -0.015158985642176102, 0.0032353509228895848], [-0.005581025886752536, 0.08891189380355999, -0.14457338729743358, 0.028105917058481943, -0.002345596520108739, -0.005332874704841262, -0.007059487055215801, -0.008644197076628831, -0.020813985899485566, 0.010380096218352317, 0.0023966254615147447, 0.09606523034732839, 0.00035660392445280466, -0.001024780760793341, 0.11531348571586109, -0.007201831443947118, -0.0023877073769646806, -0.20620242295966423, -0.017871316317045114, 0.0012296185935246756, -0.008740438981803928, 0.002273525996133985, 0.0788050033111073, -0.015962893235249367, -0.00761134699137828, 0.07010866226239255, -0.03068797291098172, 0.008763287191087838, -0.0023287730446839177, -0.0029200116532243684], [0.0, -0.009517594514008285, 0.009066015957519939, -0.0039923357023658, 0.04453975402010151, -0.029535524191039993, -0.02356252476085828, 0.010520836625794115, 0.012596905677474254, 0.014247942301161533, 0.0038963401256688728, 0.021347566458197197, -0.2639693856121723, 0.010755478279486221, -0.05852712498182827, 0.05716402729939111, -0.00427792215514644, 0.0, -0.007751512877241907, -0.011478663350671317, 0.025222823359613285, -0.004305651030862866, -0.15151974203794563, -0.015632239079231145, 0.04735522241426387, -0.05358543935166496, 0.03223354891850749, 0.02030086418380173, 0.023694499020458035, -0.02940251571352381], [-0.005999698258179189, 0.007191499422219065, 0.008763538999520289, 0.0026224808588883684, -0.0020535941466472835, -0.005030208978675966, 0.034240319908675695, 0.003018156391741086, -0.0058529745001416845, 0.05890838814584325, 0.006981103086481664, 0.0, 0.13061333580408727, -0.006728279090659306, 0.0013159508241499009, 0.004273252661238073, 0.030960136544507702, 0.0005953112107702108, -0.0021855726196277825, -0.0037325480109591256, 0.20201717081567566, -0.012693919921568647, 0.08530293503000423, -0.09051449469692663, -0.010042956712808894, 0.0002140680166211902, 0.2583854625438284, -0.008585446289275595, -0.008747259323749177, -0.002429937186528663], [-0.21554569196983017, -0.019199953728240817, 0.0053986865126768886, -0.022352609486042903, -0.013732362901714564, -0.06358686643821106, 0.12113343821600063, 0.03862334118388346, 0.012587395571105935, -0.023173914883044173, 0.10422354004399823, -0.012750989879038551, -0.01106690070968825, -0.02328194294898896, 0.02244366923244614, 0.017942438561844933, 0.0, -0.01678708471593631, 0.0021770933556511766, -0.01609474628733556, 0.023333716651944173, 0.011825696782580594, -0.0018186885844463483, -0.010814101681853039, -0.01800725786008184, 0.11411778226267079, -0.01856140541380129, -0.02578155074324945, 0.01119380940295928, 0.002443323990734409], [0.0001973349744600442, -0.00017692219443659298, -0.01883295957626208, -0.006307066276932937, 0.28207641034653846, -0.000766755102898187, -0.01158125615117153, 0.014703673198531081, -0.0012035572255320488, 0.001015973262399035, -0.06333117335613268, -0.00019902494077009844, -0.23063358621958954, -0.001074272904637917, 0.0012301159051767816, 0.0011760047857509806, -0.15022962520330152, -0.000850842560695521, -0.000389001131093605, 0.045348827430178804, -0.0006413227614067448, 0.08838948581723204, -0.0009676052283261375, 0.002560733462693491, 0.0006338562913621692, -0.010423916874508768, -0.0011167214314019693, -0.046970357587913084, -0.0004709324388126355, 0.016500685359853738], [0.0032097058939647297, -0.006499422761600461, 0.026989590400444317, -0.003984228243248991, 0.0, -0.026234799131700477, 0.012657670998018586, -0.00044633482760197133, -0.046261694044895496, -0.0029547297094288587, 0.0027687754186866706, -0.010184240916173428, 0.013365297390724215, -0.0329687790243418, 0.1145737940692662, -0.29310485781749435, 0.051619412695223306, 5.069256184004473e-05, 0.00740617393431287, 0.02769595392969463, 0.0024575996601664766, -0.0068691536268974795, -0.0053968547267779264, 0.040729285418404454, -0.004168993093085755, 0.19823981928595535, -0.003005686711758205, 0.027573609224962565, -0.0037698602613376424, -0.024812984221992834], [0.15922067318572092, -0.005496982270203041, 0.007752163313855906, 0.00017270182958184857, 0.00762141133752139, -0.006788695251565909, -0.0027288819462079035, -0.0072568835118933745, -0.006969279444335416, 0.00297726048367868, 0.0018488157851849342, 0.006319922759431944, -0.029582269267195715, 0.005360589586587057, 0.1106855772647828, -0.09955621291752936, 0.0007504919848978643, -0.03589615128941039, 0.008565131381554937, 0.00671271154948044, 0.3116013202084192, -0.007342691247086309, 0.06328512041587482, 0.0003681535548318383, -0.04367019810229715, -0.0025506790321531874, 0.0004090237362698764, 0.019347919479652604, -6.032220570734015e-06, -0.039156055642224415], [-0.020495971923322844, -0.12451977702900213, -0.009629296585197757, 0.002358629064336758, 0.0, -0.004262701043639223, 0.0207928502556756, 0.0006965793675664449, 0.14544711303970498, 0.03772195719407526, 0.09955507953939877, -0.0025123993861211917, -0.0214222078642453, 0.07003245462613437, -0.01877546529995714, 0.018112568766563822, 0.06532889037866614, -0.187666306806457, 0.0021930598504065414, -0.007932281196330153, -0.0360313705963696, 0.003107124239244739, -0.0033632136673639795, 0.022591948168907274, 0.02332006151461038, -0.0224860467115767, -0.021436285045112885, 0.0023281352754222517, -0.005078312839840257, -0.0008019127247503073], [-0.0441010687775982, -0.0005936263769531471, 0.018632335253849795, 0.0023160616380343522, 0.010667614537227301, -0.0047728634640890515, 0.007282654332904145, 0.003376271833907705, 0.004023462382415655, 0.09211995687328924, -0.013464433348482175, 0.1200580544382129, -0.020212913727821278, 0.008228138401330182, 0.0073574078462909165, 0.016933912801852486, -0.0013525464018902757, 0.044793055563626144, -0.011786977443308757, -0.019125836135098644, 0.01011285903448688, 0.004420745276291216, 0.01912334268378791, 0.03946886200434509, -0.014028651164391375, 0.1538148033944185, -0.29949899106170896, 0.0006071803074355463, 0.004933288142133207, 0.002792085352818926], [-0.09353341393662376, -0.004847866978017965, 0.1290443982229434, -0.0043453228339634855, -0.009419544314808142, -0.03696745562233287, 0.07635798311237915, 0.010599525429082256, -0.004655807991999251, -0.31926219189032273, -0.00808886437366111, -2.5465969396515796e-06, 0.011805821688893712, -0.01211209443584718, -0.008580034237920295, -0.0002603874803288681, 0.003815446034580942, 0.0, 0.000589109744678887, -0.002560864712384148, 0.0035925244782486028, -0.010115179018071331, 0.10094092556608691, 0.00031892892592154723, 0.009048426743055815, 0.0, -0.1295143172999139, 0.0007616949258486096, -0.005403480810223333, 0.003455842594922028], [-0.017831784869754282, 0.03162306007422315, 0.02526139275906982, 0.023314279678426284, -0.03232985472282496, 0.0237492930175096, -0.029181914744240645, -0.040331182486341585, 0.0027584046722868632, 0.021298061393680418, 0.0, -0.015409287791322899, -0.02944150163980843, -0.003615724554064073, -0.0022397378741618, -0.026368176554083828, -0.007475717057352048, 0.052228387659490325, -0.01652290127637792, 0.009979399569727097, 0.02831912665171934, -0.3058960386370328, 0.0, -0.02814765043211393, 0.032481511492064366, 0.015777722200737896, -0.08220257535653916, -0.049595107307054465, 0.03357270474795284, 0.013047500780039235]]
[[0.025843125569474473, 0.015044599299475306, -0.004981767622226431, 0.0011246851887877565, 0.039800837118405256, -0.04363553461833286, 0.0, 0.10397520736031192, -0.12090962366373381, -0.03244514208773466, -0.014819654982150316, -0.18817942517687158, 0.001640322814535549, -0.0020931293907530115, 0.0020783176711000693, 0.03125418840262511, -0.002299259673901564, -0.038952934724525684, -0.011992687716740356, -0.006323183887532389, 0.009466754517378552, 0.007204077076383729, -0.005608500920229447, -0.0036513961376390095, 0.19627246285782995, -0.010855256749893849, -0.0033058837600494226, 0.03481655427925229, -0.0387129113036124, -0.002712575428513188], [-0.00010662330651736842, 0.008732178846906677, -0.0022162244843729317, -0.0061489624663881035, 0.021495326848986848, 0.19012975222524484, 0.028955897010416027, 0.010787333746659028, -0.012205972864709693, -0.0074500978363593855, 0.013292503613242771, -0.0035053154334230715, -0.09545565016984281, -0.03861340249393824, 0.003877478398142542, -0.007402032212594486, 0.06868207566144315, 0.032950693518539666, -0.00017429570246680118, -0.009010400465992092, -0.003452223427812991, -0.047280252982214915, -0.011881925459706545, -0.0010790270297517004, 0.012608898250933387, -0.02902956220721843, 0.3020269990788568, 0.01874095754002963, 0.010660191710711517, 0.002047745006577583], [0.007721390314673326, 0.0, -0.01783006368642549, -0.0018250612088168776, 0.00386247568032855, 0.10389842976222143, -0.0009963164440277828, 0.0012668790812348204, -0.005476256976236041, -0.0011586204895709287, 0.0033274019058287035, 0.08119695921287925, 0.008726748185216794, -0.00046294049287526427, 0.0024134154148642228, 0.0025825230533134103, 0.02432549814536934, 0.027563738129771965, -0.020863012045433633, -0.15386883951026908, 0.014528764900446587, -0.003723214012341475, 0.006146768358614771, -0.012825979065762463, -0.031207367776553443, 0.235690275756187, -0.07889515230450932, -0.09302010126596114, -0.05029193900547932, -0.004303867814787734], [-0.010979801995116598, -0.012132839281346775, 0.010825152980956602, -0.0035055304845194287, -0.0011695815198551583, 0.024863007698157642, -0.023199021567309717, 0.0, 0.013022383830437885, 0.0, 0.0, 0.0, -0.11708698209125808, 0.09465227593180617, -0.012004750320830487, -0.004549393858085103, -0.08791879894200051, -0.13048165112878052, 0.03569951962880085, 0.25845940785149024, -0.00762449125028868, -0.004023034472743947, 0.0625638993489823, 0.005208383173872086, 0.008023532073459523, 0.03391674365283616, 0.003311067742782355, 0.003739888485397802, -0.021004656812558167, -0.010034203876327471], [0.0, -0.02494789600726462, 0.01143057675398432, 0.16125138708814915, 0.04411249708184039, -0.029361398940090804, 0.01572548470338049, -0.0022264740604646376, 0.028579527660904328, -0.0527557313004061, -0.009563516148270322, 0.01638289003776064, 0.011433383121056635, 0.03337013281509693, 0.006822015409130508, -0.02708531012581986, -0.002321698508080279, -0.015236957577226451, -0.007168770515583933, 0.014346560479246432, -0.03054021661299899, -0.23533589724345935, 0.0, 0.014426733471925756, -0.0178412666549692, 0.061502483627415, 0.08804749444632173, -0.008579317513412918, -0.025776706623502652, -0.0038276754722374635], [0.04994344783214711, 0.0669339206781225, 0.004085721943018622, -0.0016523134827410113, 0.017524225044501608, -0.22719252267185994, -0.005078032034348138, 0.009639804787759372, 0.00872479923061644, -0.0010217883230649557, 0.10493096382654353, -0.004746795192870747, 0.0617999301357815, -0.029080212689160202, -0.004830311237046955, 0.006077733713436376, -0.04993300381857787, 0.0007045128248333248, 0.02261817138206862, 0.0022437833938940394, 0.0036682502174830373, -0.09253030649266208, -0.008359732345921028, 0.02292503067097332, 0.003374930373284605, -0.15152125335291985, -0.011678406453986925, 0.004210503350795317, 0.012504061716937824, -0.010465530782643081], [-0.044416171042985765, -0.00232007531362001, -0.014769775470006272, 0.0023619116849588513, 0.0, 0.0, 0.08826985988884171, 0.006215416603747926, 0.00827019376396926, 0.006469252885340653, 0.002998400673302868, 0.04738803875904983, -0.004538863478216278, 0.012838409999729034, -0.002255541060895492, 0.007002676492908281, -0.005094423442264484, -0.0041279944948473, -0.00360072320687268, -0.1609963259743012, -0.11439541867056928, -0.0027381386181655645, -0.004245922778968519, -0.07607456617582542, 0.16842885495418788, 0.043870362756454305, -0.005913229095355178, -0.00312481581039392, -0.00584585090610999, 0.15142878599811213], [0.0039735364891192, 0.0007827224111180634, 0.01139889308542171, -0.06791335429218881, 0.005936784471067133, 0.0029666941770479056, -0.005966320955409288, 0.0009478117696245768, -0.07342091233783882, 0.020217511001379217, -0.011748470627744948, 0.1930024860887251, 0.007310708818061716, 0.009940548570591913, 0.003875746298769933, 0.20108636348775608, -0.003257850564202463, -0.007870744728035499, 0.0011743288955887545, 0.007401465258770901, 0.05017068878315793, 0.004082423605574197, -0.09757939602775628, 0.023419536297017398, 0.007440739762968607, 0.0028045110832257024, -0.006944681930123158, -0.13433903953413712, 0.02948689446647038, -0.003538834181107113], [-0.03371654498270584, -0.0009277999456605844, 0.001297141515631815, 0.0, 0.011364223616869092, -0.003995280712632105, 0.008319902238808985, 0.032706556248913124, 6.792587925690966e-05, -0.1018300908095679, -0.08493994156963193, -0.0011998349154679008, -0.00074815792226379, -0.0019470333500506477, 0.008800546346988887, 0.048236529441319204, 0.04649394796793586, 0.0008943427448529762, 0.03247655309881415, -0.004916303056418997, 0.0014031091969049314, -0.0008540824972213491, 0.2590106642443339, 0.009139528812495655, -0.0343950714961827, -0.00228074612730897, 0.2542223395814529, -0.0007940678548315762, 0.004025980889109065, 0.008995752936368251], [-0.0011463763127184477, -0.0009264202242189424, 0.021852847653145793, 0.026425534623464787, 0.021432158280233104, 0.00010697647600878504, 0.01114728080487046, -0.009440976651383687, -0.00047805009055162484, 0.0, 0.025911960779536117, 0.0016102694990983502, -0.029787881563513446, -0.0018475751199696455, 0.3126608994544417, -0.00788208111986312, -0.005790588858529381, -0.03233911714926088, 0.02955366390110312, 0.001413586312510056, 0.18796951096413275, 0.11905654984451006, -0.0019198295545600455, 0.0005998329847227258, -0.001010963557440936, 0.001883285293700944, 0.01286706664547721, -0.016543549676378565, 0.09043973252168273, -0.025955434082972326], [-0.035480474431098585, -0.03822135209402155, -0.1378501442706538, -0.025774099282806637, 0.027967255351286042, -0.003851218469881815, 0.010192365011921674, 0.04739333590227693, 0.03254600730261986, 0.030023946090227804, -0.0542168382659384, 0.0034771471106287916, -0.0512205721811992, 0.0051572307997274774, 0.02035033511000097, -0.010243653527715656, 0.00832096437277999, 0.008451048592448189, -0.03870048547581509, 0.0019188908807123656, 0.020986778728785734, -0.16973910846801624, -0.00845751115502927, 0.0, -0.029177899305704157, 0.0, -0.007921179044851854, -0.15577228431301884, 0.001367957580212886, 0.015219916880620233], [0.019706844836705133, -0.014591697501235653, 0.0061026770890556985, -0.05610881922520516, 0.006715219398332744, 0.0019566227990711767, 0.00831070615647222, -0.0015850571960246637, 0.0018765273061001266, -0.02727971519181691, -0.04160680990148175, 0.006102361224312853, -0.014431790179214053, 0.0, 0.13587086070240917, -0.00810927984532615, 0.006154970551693247, 0.009437276758924435, 0.0011234657454438268, -0.004275427712970641, 0.010579416668235598, -0.034623268309897086, -0.148467890119494, 0.0032319647451765623, -0.002892277266668686, 0.0, -0.13316783569980703, -0.008007053313071414, 0.2854557691805061, 0.00222839537534791], [0.005800967648199181, 0.00033661718947863975, -0.0016897544741442182, 0.0008117725859395676, -0.010984136615115004, -0.02803650814878456, -0.09169224122368706, 0.004073126559301231, 0.0, 0.006288109621947907, -0.1746967585103086, -0.0074960451483346855, 0.0031878750543604265, -0.06734155816013718, -0.012308719048656155, 0.002862934288453089, -0.025967060417614273, 0.3263087737909331, 0.00700199969449061, 0.0007822111847500128, -0.012487565679884734, 0.003646336163065621, 0.0027613366849239896, -0.003707662801899015, 0.0912254459883825, -0.0026285671974753976, -0.002216402469624482, 0.005999627582675262, -0.09517570113583368, 0.0024841849315999616], [-0.029639322778164376, 0.011793158296856203, -0.0005087031546433777, 0.0061307228152717545, 0.02824014630324404, 0.011910891977122768, -0.03367091006929898, -0.09072278568551058, 0.0031979329135119697, -0.0004697711458758337, 0.01802414572342331, 0.002987504406880067, 0.07595102610221503, 0.15682675752390848, -0.005538317784225676, 0.005686991078432848, 0.03986207585421751, 0.11567030685402309, -0.0027295348013172574, -0.015068978225276709, 0.007222509208022807, 0.004301629093729333, -0.018913225246894868, 0.015293190842751691, 0.0, -0.001265335986477396, 0.02086749798765511, 0.001287908202427272, 0.04382228581716471, -0.23239643412145683], [0.004322629967165873, -0.014622502091977168, 0.011363650521404532, -0.025385205869691275, -0.014838694616948832, -0.022231209932264347, -0.03309859858513058, 0.006683013610566122, 0.1327133943767362, 0.25480682999688303, -0.017920413639967547, -0.0073810192958601376, -0.053200484954685524, 0.006405200384198586, -0.019209909846687283, -0.0010949741735708837, 0.01949945353437617, -0.008411623213058087, -0.005025269033773596, -0.17251173402749617, -0.03299579400222502, 0.015458329340119708, 0.0065545825950446895, -0.001953362801387128, -0.001609212275575782, -0.010893386954175762, 0.016609922390839055, 0.022467771867395552, 0.040885724682913564, 0.01984610141788184], [0.014310882743920145, 0.00015149232510704554, -0.0009420723446631628, -0.04297297663550912, 0.057740628648996005, -0.00018713463917697823, -0.006497505680073136, -0.0010795517352678934, 0.01052807841659456, 0.023851983388944384, -0.0011602131777228607, -0.0334532893489043, 0.008211468472265743, 0.016392476859933426, -0.0012826336539042995, 0.0010737666667922927, -0.0857865260059704, -0.0034951837926748934, -0.05862597412138724, 0.19953508882716756, -0.002412986640297467, 0.0691979034544757, -7.793257944837533e-05, -0.008373410141644158, -0.12186623061109528, -0.0002418098918364438, -0.015607928384636253, 0.18243109470004246, 0.0002672927066601091, -0.032244483404888426], [-0.07654642060007315, -0.014336399797253947, -0.019975389381399027, 0.022915899598999298, -0.04214404487818633, -0.008223288641120584, 0.0045952738777048485, 0.013110544542050925, 0.009579420279295581, 0.06281240004252546, 0.0, 0.030293894085080496, -0.01115738917893829, -0.010373956125250803, 0.11061080519877865, -0.0006522444351339211, 0.010973971818635204, 0.00589215501497216, 0.1649965094877007, 0.002222130419605132, -0.005335524573524057, 0.0012696481314226086, -0.010520896430919857, -0.006982664299287913, 0.005449345849040765, -0.023988704187834626, 0.0018164893163057424, -0.015806289657915456, 0.24899795341281367, 0.05842034673823091], [-0.0026788149446364245, -0.07766960053296265, 0.0007038351879524352, -0.039945096839328245, -0.0018137988656274158, 0.06163304950586941, 0.0006387836468345744, -0.03167923453890002, 0.006304697019339515, 0.05754891130122016, 0.004779705299993674, 0.0051092741598048165, 0.020599914900824884, 0.005192932984480675, 0.00214376701681263, 0.003950467852554531, -0.005622347544843642, -0.002221239027247259, -0.002475451239629993, -0.001845988876339798, -0.05785376803695231, -0.0012982563517008614, -0.03649012698591387, -0.0006130064556533106, 0.038160422029983085, -0.00304209792009103, -0.006207680185192096, 0.3512263013040536, 0.16325874634252058, 0.007292683102736577]]