[[-0.045315779388998105, -0.05932803474904723, 0.04772484099344338, -0.015793446925366203, 0.012921031910128153, 0.057995293577540116, -0.0513020432954217, 0.0059140981151595455, 0.016697361789252366, -0.03746309922875175, -0.0055760893521516934, -0.00811580541142525, 0.07412024018965863, -0.012744908499072765, 0.06737107803301019, -0.0005572848649082595, -0.050785267266059225, -0.03921143924888045, 0.031430692199042876, -0.014784538322965748, -0.019661413460702614, 0.046165512739904005, -0.039426414955479425, 0.06379258856906789, 0.06274794418728154, -0.0516328191541421, 0.061420933573138825], [0.016440780029990668, -0.004055605832935344, 0.017887213622251465, -0.006479000391926578, 0.04323846040160946, 0.007765443352965156, -0.028625926558081133, -0.05934457832114472, -0.04334066171191369, -0.08727540937930969, 0.0068037752727548965, -0.03588003184313982, -0.08467793204961016, 0.0030482552275757926, -0.043786849514080524, -0.05395984271830537, 0.0003209732876029688, 0.050448272962772545, -0.019861324004428624, 0.07361763547484769, 0.0408560145817843, -0.021084409426466378, -0.07295287652731894, -0.039765379640995135, 0.030076050064994846, 0.06694247718964903, 0.04146482061154514], [-0.042967510831278144, -0.02033505397517907, -0.010306152048410216, 0.05388777481439501, -0.035576581068970825, -0.05596409287091633, -0.0635880436818192, -0.03747279481796902, -0.05600962110079813, -0.05225743033742375, -0.01629053603025218, -0.04678919725853639, -0.01966986106257067, 0.02052678131240871, 0.03905659254254931, -0.04481940594905313, -0.007754918388830838, 0.05638080443192974, 0.03846278258354546, -0.011520710196341268, 0.05097961424558392, 0.05487016281792517, -0.021421889359213596, 0.04220438891933514, 0.059745344928335255, -0.005137823071607993, 0.036004131354821604], [-0.0448279223154249, -0.049546257031763484, -0.05279332434186957, 0.040611273183654956, -0.025394092632912642, -0.021863045219209832, 0.008645394380034133, 0.018990164416058358, -0.04267605662284511, 0.04661597725288627, -0.04764158429955241, -0.03681084409088548, 0.018535172346359735, 0.0306904591117793, -0.011198290994529422, 0.05650348485384274, -0.06309698028700284, 0.02826400280320702, -0.0018566327645059772, 0.06111678950536601, 0.035210608009755756, -0.06602466268620164, -0.017304578438177343, 0.046495581157722086, -0.05477797658777427, -0.04867206465885642, -0.023836780007822075], [0.048753504049219826, 0.03710275282098161, -0.011962460851621082, 0.030903683501859396, -0.0015616886707887107, 0.046087085213535856, 0.012075460537314732, 0.02543793999458303, -0.03009132514187555, 0.0028411516586975957, -0.048112502026640185, 0.07206628460658036, 0.026870751793910096, 0.05865161295055052, 0.04400597678974317, -0.02343247010094165, 0.01472450158536049, 0.048207667690460324, 0.050785499859937265, 0.047892674275864, -0.005799152461543685, 0.05777700513334856, 0.07489646082042775, 0.03752262686419356, 0.07411150061081316, 0.04354757808554165, 0.024778681903665997], [-0.0534335296248278, -0.004410304532306662, 0.021246531742308436, 0.010707775497883024, -0.05527669937608195, 0.01577090735323575, 0.0681786247120645, 0.03259732063068503, -0.04089021953646504, 0.019590280545073547, -0.02155425180683476, -0.02882676603403417, 0.06418699853633276, -0.009560662355184445, -0.033421651514370605, -0.035963350439107325, -0.060728331800829614, 0.017721775137621906, -0.06126559755629894, -0.05891594306954916, 0.06869972786656933, 0.020270962394933513, -0.029329329633268203, -0.0508809814704155, -0.03967010732932886, -0.04259817126096053, 0.034303198243428805], [0.04442413917233029, 0.02215910583783036, 0.07118642109316917, 0.04506465199626993, 0.0660484029177418, 0.04168409363479277, -0.036493804104629386, 0.05354058078765009, 0.03148383728947185, -0.00014498329199680497, -0.060301163048019905, -0.05242070112691807, 0.022921030072239078, -0.005841010866021148, 0.06648363259766475, -0.047649248503441266, -0.004832501064795288, 0.031853988934147114, -0.014313229535229038, 0.023156448225924553, 0.049620699519808686, 0.06753612480360063, 0.050764995554990526, -0.025685172842128425, 0.03812621847057339, -0.017125598775178583, 0.009138215933437078], [0.04733756307488368, -0.058693760099631016, 0.04817863033355936, -0.002052417936961065, 0.06703116568799604, 0.06498435222698978, 0.037774768117073816, 0.043073258269989124, -0.03283765993004429, -0.025410138994255652, -0.06019187000307797, -0.022884003864140617, 0.009181805980380158, -0.001907904088958514, 0.04789867838536216, 0.05061799428590864, -0.05440135970733146, 0.056634322227128726, -0.0002974811306231922, 0.006692748923083117, 0.051722950342402096, -0.03277450613632262, -0.04082401353640781, 0.0669025056841778, -0.05502509770817847, 0.013862328016088969, 0.000806715309043901], [-0.031030643852355135, -0.05542125788667308, 0.009327149556488565, -0.05334821519919778, 0.04500794956444902, -0.006093342236908688, 0.006303465115682963, -0.061916622746320246, -0.018127544964930357, -0.017985504530471572, -0.05907358274660894, 0.03363858055845014, -0.03668946274417714, -0.04658904498318561, -0.040695341377847784, -0.005145165720034696, -0.06318334700364593, 0.011514066908933711, -0.04660768931940739, -0.061613170279177364, -0.04336601980308717, -0.03216343200805599, 0.040689062046694216, -0.051084992251152976, -0.051092742636917814, 0.028589717203420347, -0.043702886755725465], [0.062300013606854256, -0.018800339223588033, 0.028639946651397106, 0.007476711079524677, -0.009103570206694644, -0.04860602580303482, 0.06076753461280302, 0.06498434090087601, 0.021973586189840997, -0.046696277941211124, -0.059118737502698714, 0.04938821002258359, -0.03237203303612525, 0.06644831992984984, 0.019387163886380225, 0.007478552770158575, -0.009225733355496592, -0.043725918827119556, 0.047268306110507065, -3.780568926426923e-05, 0.023670451173311263, -0.021784756036106204, 0.06183310398401499, -0.05771729092692991, 0.04994317074654213, 0.06174975283806185, -0.019502346949025546], [-0.002331246515600155, 0.05819934696807582, 0.006565020771137568, 0.0454538155259411, 0.054171692806727754, 0.03748039839877273, -0.012399060511997602, 0.0419610944072966, 0.05249717448219365, 0.009257613206286, -0.061520656460866976, -0.048526902237317766, -0.014339187767686888, -0.05171147168317194, 0.06652759801761034, 0.05570901138682001, -0.012891889263060199, -0.02362464706079323, 0.05003571170067625, 0.02628613765434546, -0.0721768457775246, 0.030283697688952723, 0.013796509803870441, -0.03637846258352037, 0.0398945026660774, 0.032309813677746074, -0.04367049097593027], [0.022806367023733683, -0.04309258644843789, -0.03373229754730122, 0.03850679479881313, 0.039237423976067026, -0.015483391149064283, 0.022394336727580084, -0.020704223976473573, -0.0669738956627927, 0.03433187837604456, -0.0342874610431786, -0.01774985056442681, -0.011362590093538013, -0.012665388108849275, -0.06796578358991949, 0.071666150898995, -0.03945069739827239, -0.056349592176298355, 0.006698264381951637, 0.011087601244759463, -0.04752291721161693, -0.06992453778836635, 0.04415525051528248, 0.033408709609394426, 0.003512287471386053, 0.06880651049942528, 0.06612321171803134], [0.009468194088876475, -0.014260413818926121, 0.039097331242859204, -0.0460208619510961, -0.017122797554583163, -0.02647473981418191, 0.006977660400236781, 0.042438196678384776, -0.03376251227984111, -0.0027406607630510917, 0.04560784923874991, -0.04001186924251039, 0.04080903755696288, -0.04003101651281112, -0.039354623877497975, 0.06611024118021674, -0.058141736912887654, 0.016496185680806755, 0.01374797382853184, 0.05496677038211637, 0.05565311729917917, 0.023876180080094775, -0.03518501508806256, 0.04220802735353952, 0.06976506112764308, 0.06908490970211915, 0.0505870163442333], [0.033592240967030694, 0.0014237489440950934, -0.02971050078318718, 0.04945581810495645, 0.03934861537728454, 0.015271135286308878, -0.032189655987149964, 0.001484989034878409, 0.00734602975658993, 0.06352394339499953, -0.06345005219496302, 0.026351994094749302, 0.06401431320665053, 0.049618636810574476, 0.00019923586976785713, 0.061156593212865866, 0.06544568531375955, -0.04753718302843648, -0.034615475233322264, -0.03428642157187102, 0.009303941028919169, -0.05043629659848436, 0.05594339101814416, -0.04380185192837209, 0.054090201743623216, 0.03538734079522213, 0.031014708713793845], [-0.04026261705984681, 0.05200440531827471, 0.05189802567287492, 0.048484225835577495, -0.009579531239976534, -0.04640021581406261, 0.038385648969132186, 0.009765238192912857, 0.050815203431154136, -0.015796911250015144, -0.027164874404474845, 0.0469960678459549, -0.06496346944640378, 0.03968552496742169, -0.04540334756452553, -0.015598708702265004, 0.06166782718463851, 0.03562634442543983, -0.00493983281138978, -0.04929295037272445, 0.031722356586814986, 0.007240822356091047, -0.03481837634700077, 0.044373499807225866, -0.049798018401774176, 0.06613894686964748, 0.011177009122379938], [-0.05190503728433653, 0.07380955005573309, -0.06720125458778378, 0.017074292374699145, 0.07031141979226742, -0.010247329268485077, -0.06993559695075484, -0.01654397301462572, -0.0029203580947547375, 0.05764882360817542, -0.03165969497019901, -0.05553075672267716, -0.05301353499819564, 0.059372829427671595, -0.05494999566341566, -0.06169528068157032, -0.02981311753394156, -0.006182323390558233, 0.029563334935500143, -0.05204675457358173, 0.013530961650104579, -0.00843988795033666, -0.0026016519598353553, -0.008796633322414288, -0.0676247160069575, 0.00783653546204795, -0.01974435571937681], [0.03652318590396913, 0.06870931927259281, -0.03010992274966678, 0.0678746411038658, -0.010936151128605263, -0.01049749025940689, 0.0339309869284731, -0.020581291852345234, -0.02469226078240434, 0.0436756970904651, 0.05951341376051622, -0.05062047951641799, 0.007962242839574484, -0.010502273424137296, -0.01147546015129823, 0.056969405206026856, -0.02860822072009545, -0.07076259780911873, -0.0636114645709847, -0.055589545944281324, -0.014603202247799109, -0.025745525551352972, 0.045153051414139764, -0.05353188395921774, 0.05420434786717931, 0.002196375868771678, -0.04141956207729375], [0.07852397526978294, -0.060808303033441896, 0.03994317965602404, 0.030202542968154545, -0.06664443211797788, 0.07998187990019767, -0.040363735364726816, 0.003972559863079339, -0.052835540545842025, 0.05688380048086637, -0.0018235263968745098, 0.017484930083177645, -0.0015709230652049193, 0.014073790153982883, 0.006056902864449326, -0.03131306300074804, 0.01210613822155346, 0.025283493410643846, -0.062463341674676855, 0.07159175810328446, 0.021344222550026333, 0.0, 0.035390332848206696, 0.013898106943785633, -0.06982183151776285, 0.030427979512607683, 0.07518971045292115], [0.01957609271583365, 0.03160896969185567, 0.04356506958263092, -0.027027049068363212, 0.06690749712175853, 0.026352295430649274, 0.04376875164023651, 0.03831618465042211, -0.006551039155799502, 0.060210491217348186, 0.006302644126712223, 0.022618952592196987, 0.022024435868396613, 0.001965972989733481, -0.04476278874345718, 0.07537725290608754, -0.06241818774770887, -0.017849338265843704, 0.04865377260373029, -0.03673687603821121, -0.03851688697397536, -0.015126707939316274, 0.058749897278918016, -0.00503300308160051, 0.043747416043949695, -0.07486795935659, 0.06136446716867453], [-0.04940864831713068, 0.0047610233367495125, -0.059188968819879194, 0.009820645291371279, -0.021036604654711695, -0.053826142821121796, 0.07526379178683958, -0.04098750241202423, -0.03034154577179212, -0.061897738160385546, 0.00877281913770014, 0.011203578458039754, 0.038060680585191194, -0.0063511192122810076, 0.009121781932627289, 0.004068328219945036, 0.07287187450607961, 0.019884819520948945, 0.08287099151178962, 0.033693283076275005, 0.028373103312188612, 0.007847109615336917, 0.04774781442783762, 0.05320308753399773, 0.06019341264495044, -0.06563643473939554, -0.0435671501934099], [0.041141211888052434, -0.032658798463379095, -0.047318277853824656, 0.021106052268003793, -0.01839661586455125, 0.07020649703920756, 0.06697976385933842, 0.05503757651693714, -0.02300408051508528, -0.057309531570232074, 0.037169526042421665, 0.0022638663509230153, -0.003175351507515408, 0.033552644816054675, 0.019020053330876613, 0.053653450662320495, 0.031868816840019805, -0.007135753027691822, -0.054479307717680905, 0.04488099145430114, 0.03751773748932132, -0.027482169919633516, 0.057510074788121826, 0.05433096401166849, -0.06725211458554577, -0.0062406493366492476, -0.02930812228064265], [-0.043332007432497786, 0.010284660603520134, -0.051716917907399886, -0.022803871886226935, -0.05011664383434969, 0.07125741480765609, -0.024002353020232858, 0.06857911967714043, 0.0017933149206879786, 0.06218968454528367, 0.02245607758000064, -0.012359067021790472, 0.05939702238710938, -0.05705617886433293, -0.029758309129737724, -0.017843870929650476, -0.072684032412619, 0.017044680170494736, 0.034986461515153264, -0.0016201205993852255, 0.06984416522749211, 0.028953636727410997, -0.0025429120474035295, -0.056748790277062595, -0.023988151338222463, 0.05524321539632753, -0.031397319740811634], [0.0764055083424145, -0.04937623599367526, -0.02265018832334834, -0.05297527344386278, -0.011652752728445145, 0.01902901100717355, -0.06006146270007022, -0.07187840976021719, 0.014346587855693814, -0.026756961980115127, -0.04010424667886544, -0.06301569677304833, -0.008314086033141505, 0.02866112278570004, 0.08434109152335906, -0.01111440363485416, -0.026697053005831365, 0.0026665904791427597, 0.06814206878082053, 0.0037634736382353455, 0.06952885568824246, 0.016818041925439196, 0.012750960045335866, 0.030230579485772752, 0.049893411618085, 0.04162287444925016, 0.03720305131985991], [0.05847008857698176, -0.06828114641998506, 0.07657507253900535, -0.047946436138588074, -0.016099583258648794, -0.08040467694511048, 0.0029685852990297265, 0.02044712716060159, -0.05546578536867845, 0.041450604225950524, -0.007325480014302764, -0.011858881098838757, 0.03199857374475021, 0.04884407509845015, -0.028839067863180273, 0.0117824379560263, 0.05522065659156559, 0.021098599852506915, 0.0471205832978772, 0.011372666688622699, -0.019931505684214357, 0.0792022761844192, -0.02372217250231337, -0.03871525527847364, -0.06417128198849992, -0.0014607200648545037, 0.02922666015852437], [0.04603656403511728, 0.06370434242719608, 0.04681816144680644, 0.040545676519139276, -0.06303206535191555, -0.05647390120910997, 0.05944795469037428, 0.026242147930882916, 0.01553432333548772, -0.009221427512378448, -0.0308680505158114, -0.059576244038434534, -0.02025687344848848, -0.06041583073063757, -0.028912221727990167, -0.046367457214533316, -0.058814418960879786, -0.04822841757205719, -0.06940499267101888, -0.034204008001620226, 0.02022011258319674, 0.004169174189180265, 0.02299851685148285, 0.028352106110744717, 0.03137419220849792, -0.008432108762573456, 0.00034870995444458825], [0.039404202109652106, 0.04350869351620641, -0.025772349921812928, 0.05687524854036339, 0.0684259415916296, -0.02723947167718892, 0.01317936980767444, -0.04361467770763373, 0.003247640524218206, 0.028758227784900125, 0.05867858138494852, -0.0252085187109325, -0.0641502994842729, -0.04791485682503587, 0.05818995200589778, 0.0638547044671189, 0.05270225492787223, -0.012378504963643297, 0.02720888196311019, -0.04958770639038188, -0.009561121736194226, -0.004414525150189323, 0.05394768128540088, -0.019119172401139195, 0.0685967085736941, -0.02938298631105632, -0.005077720237832024], [-0.05309663024536837, 0.05124016138285048, -0.0596826815097263, 0.012458156360717584, -0.044768845997645954, -0.05039691998330625, -0.058269529334129384, -0.01402436242837072, 0.023356731659829513, 0.01938908172829317, -0.015982864261909556, -0.009743254784408838, -0.05325780061838734, -0.000932304257883754, 0.015618948052702804, -0.05619050990136185, -0.047441695121143566, 0.0708505885483863, -0.013235822924654497, -0.013631671985568557, 0.020347606387996927, 0.069557867160041, 0.06093773517599236, -0.020637316186214325, 0.054424790965761936, 0.027826503624838756, -0.06269961941250979], [-0.03825562333723853, -0.03563586890916476, 0.04825256384693317, 0.04147920498992208, 0.06703026062257313, -0.010625759099663614, -0.03609431908742808, 0.026261479435682283, 0.029878501713014247, 0.06457949038148005, -0.058706498544785164, 0.04167345845920545, 0.03454275547844148, 0.03535585703794743, 0.02909303808831084, 0.05959449984475499, -0.0219262857454519, 0.02575590823995359, 0.059863737764260246, 0.06325079538575205, -0.029956534079979516, -0.015012958743373328, -0.028293846892000693, 0.062217809211773306, 0.014169295233381504, 0.007448533937366278, 0.015045115890162351], [-0.025886961010007915, 0.07996545276132055, 0.015345583307461698, -0.0024364823433733022, -0.005390724500347525, 0.06964104994930675, -0.07725504579318244, -0.07488601639123514, 0.007010605291674009, 0.055106220250509194, 0.03706353592449582, 0.027288709362022094, 0.02906914442038262, 0.011085563074139331, 0.06063786737204038, -0.05409901159780982, -0.0250998777032066, 0.05270536507669784, -0.04659576856146096, 0.05026499722609237, 0.04957592048182492, 0.0009578534749343978, -0.003513430038106324, 0.0670803362517141, 0.05646949288509057, 0.0036809317300350967, 0.011888053221528127], [-0.1767520528443086, -0.04281155161870079, 0.018327827382448262, 0.03817757169507165, -0.02653265113403375, 0.03271678091912326, 0.0027764760128981933, 0.039551579373630165, -0.035507627625884546, 0.026441632983485782, -0.02727306771332973, -0.03774101823970102, -0.006363336096330923, 0.04665757581191666, -0.008020306810558436, -0.04448686756446105, -0.003554865805863159, -0.06327976859566589, -0.03642862496555544, -0.04945144395865752, 0.004251136328651733, 0.019720246358387306, -0.004724262153504337, -0.062370387090484286, 0.026676494085148123, -0.06326880521285737, 0.056136041619342214]]
[[-0.0035793522155308753, -0.04494357622970494, 0.048394883148533234, 0.03383938371644977, -0.061333528659575254, -0.013263614397886734, -0.009404688535914989, -0.050750179146396304, -0.06065857812315963, 0.020129680759638845, -0.03670661954070226, 0.004075044721075894, -0.05797872353923491, -0.05831590672516825, 0.024480718495031337, -0.020053043394534946, -0.03657349470565166, -0.057605030621099715, -0.06874143361058864, 0.03236180138282219, -0.054228088025412055, -0.003214090935104892, 0.004001477770178083, -0.03399313591928383, -0.046770010514572316, 0.039172759739115874, 0.009807862330467767, -0.04903006890941079, 0.003613911797112149, -0.012979312390642006], [0.0030626914992050763, 0.05729748157599278, 0.013300847988513102, 0.007819222419717073, -0.025338541141090496, -0.004931661943232695, -0.008546583166528692, 0.03176859079353714, -0.06882271545398638, 0.008226812654602043, 0.020460371181217803, -0.0651552245272773, 0.03704303546926143, 0.0666411868946609, 0.03383173182790293, 0.050128114068052364, 0.0020792797138685466, -0.07292803159921937, -0.06097570488912165, 0.02679059422414206, 0.05582760596053778, 0.0461043050459218, -0.01936545255143917, -0.05163104149261726, -0.003854186527228723, -0.00957682056675698, 0.05490678169089695, -0.02857889185019332, 0.03096463408955812, 0.034041857193720174], [-0.06191100204735898, 0.0023163282917381084, 0.032479565675893156, 0.059681849137519304, 0.002876909955129752, -0.05777054611568807, -0.021901841492033607, -0.011322541172852321, -0.03824212833464803, -0.009339595266228636, 0.05250606842188511, -0.0008771014758419841, 0.05057929787123988, 0.02808799329629837, 0.016600478291684213, 0.03366211404642121, 0.026803235667889704, 0.02398250951982238, -0.008937172639376469, -0.06311402238251965, -0.04702698367715222, -0.06343678103596827, -0.03328390097521394, -0.06539675217463581, -0.03846351045144702, -0.03854898767449187, -0.003833866266867823, -0.035224730939809476, -0.033476995008013474, 0.03831519069433127], [0.029391275419345792, -0.020472125363837187, -0.03298337052993268, -0.021127415116907255, -0.008238028628720688, 0.044372310568625, -0.055777577495435444, -0.022036107825368172, -0.06207158938059218, 0.02760689849495242, 0.012817551110499816, -0.021847157483145984, -0.013292347817460358, -0.05860630497540656, 0.03869616781717898, -0.02153812796581374, -0.04379397166410085, -0.03269498320110464, 0.06389346244545219, 0.03108120266459962, -0.0608012257207738, 0.04462179877508834, 0.04306674441246961, 0.003189140883247791, 0.035582579493866374, -0.011871888425751412, -0.02776797827406714, 0.012018032040781775, -0.049950010690286276, -0.048792625315188076], [0.07170951195067723, 0.02744947262856287, -0.056339000006984316, -0.05604606363705141, -0.0300241313422032, -0.021117787444689885, 0.05746445737284412, 0.038870874511901195, 0.02620620603338256, 0.001333610849729818, 0.0028080395219121615, 0.04465541918976506, 0.0445558107845864, -0.004029338934247573, -0.0660115873307936, -0.051994158135760464, -0.040908706153130525, 0.018549774448586017, -0.04797293847185693, 0.017770587489863158, 0.04078130579370906, 0.00039323954155544495, 0.07295331473948163, -0.011702075458445631, -0.059195213282711816, -0.03243153209722186, -0.0075709642510064625, 0.015080533329728092, 0.019977187908494426, -0.014097157359117188], [-0.058021709735995755, 0.04049804111309373, 0.018291426415890526, 0.0507534291799065, -0.05438243482996617, 0.02630362908026521, -0.019702569329844877, 0.04005313198380092, -0.002680516991729154, -0.03727569363033605, 0.057049615886974624, -0.06121122800912914, -0.013035786835706739, 0.06182271280768168, 0.03346471886824814, 0.028194793114780913, 0.02490844151388251, 0.04434735527479267, 0.041671618833088744, -0.03680389778690077, -0.03467991698764736, 0.028411614258797614, -0.04994638728750555, 0.024669281200929656, -0.017924296154126954, 0.0021751157125523136, -0.010868901856942666, 0.0034800164160124817, -0.05027472368321854, -0.027096995220252156], [-0.04223238925949568, 0.04423591354902407, 0.012098355340588568, 0.007288140421706538, -0.03813190092366187, 0.013646540430038047, 0.05643982673236973, -0.042269466581990996, -0.050678221006558756, 0.025770567898749562, 0.0633656467550043, -0.02836670741897085, 0.010388883947753119, 0.03996235024884084, -0.04179878375291629, -0.024373799164522713, 0.027614649137172386, 0.03500664657062427, 0.06119217341531389, 0.012396236783729144, -0.045968884433013724, -0.03399154059685034, 0.0104576532811275, 0.010125667438609997, -0.05017883581617218, -0.01891903544830012, -0.02031171100538777, -0.05309514509316183, 0.0165090221941113, -0.06318530535423363], [0.04743565381136632, -0.05493687109811729, -0.04810352455895377, 0.0479466031478133, -0.018957150014234054, 0.0057547792362911505, -0.005262295977302292, -0.0316630415238431, 0.05981565293108492, -0.01840865558896193, 0.05650347084207355, 0.040708799147647884, -0.05999288771931195, 0.0452270663639961, -0.029197981656571458, -0.03463185221568449, 0.0329837910748609, -0.02738440696495106, -0.022535907400021076, 0.05025824920588903, 0.009309343312344984, 0.03376944709494016, -3.032869262786324e-05, 0.052725252331495255, 0.043116657751171746, 0.029220233604296274, -0.01571618745008926, -0.013945617425191315, -0.059274631933877234, 0.005183659924990199], [0.012188615841015434, 0.05862005923037025, -0.05123504996871517, -0.012764991427490845, 0.004368512439435562, 0.03086800316491879, -0.016192006289662948, -0.04315775250881689, 0.044131888078236085, -0.037031863832245215, -0.017600149662392033, -0.059110382425839665, -0.016405907435657868, -0.00444051927357286, -0.033627290070349224, -0.02384069389105701, 0.053747474150540445, 0.05282296516077743, -0.04636814648855841, -0.028525007977907364, -0.007738719873070584, -0.05826997178119516, 0.03741937360620968, -0.04948328258191879, -0.02121530325673334, -0.0223810619339509, -0.061650034407940466, 0.037231751576154985, 0.05070180482192971, -0.006861416843336772], [0.06619098830670972, -0.04016452162056941, 0.047302890515757895, 0.018391480044081802, -0.04221961678912251, 0.052892987439671066, -0.025385419720818054, 0.03787576480615785, 0.02335225666732803, -0.01988397422485808, 0.045097733500245665, -0.04804121755535027, 0.014335784682411102, -0.05947632374290734, 0.01529596380083047, 0.024457409654497667, 0.05726481896475478, -0.0072773906098334475, 0.038095130544061384, 0.006373039764781232, 0.03663141485324684, -0.04111121197879723, -0.039315655749066314, 0.05468050648477835, 0.030328594777029552, -0.013875873733103837, -0.004771223282948741, 0.012610671944407374, 0.0460457483942467, 0.03125438584762772], [0.024229356424460995, -0.057033826612472006, 0.04808065405380313, 0.006022557247290756, -0.01933898216460016, -0.01013312095747255, -0.05076957142004211, -0.0577235007737706, 0.011070302995153379, 0.02952282829278455, -0.022642423465020243, 0.04925517483979149, -0.025769241449445413, -0.0013526452138311771, -0.02685530720224506, 0.023118760863696436, -0.02521781484022431, 0.03541180070269384, 0.025620239453649826, -0.04245456260133607, -0.038819699700926864, 0.05971902074243126, 0.04306229937899628, 0.05340052671387546, -0.035182568685457626, -0.036525425938367814, 0.030114136357067906, -0.04319867306438951, 0.022767502507658823, 0.045587475337044187], [-0.03196603941768606, 0.017484613900780505, -0.010536477307849278, -0.0125335185941033, -0.04066333087321856, 0.023822145805913308, 0.06049383666120657, 0.04410283413553322, -0.041085776351160355, 0.05900619804632263, -0.028734495236126575, 0.006552708491070723, 0.0009631307094339189, 0.00555265277912497, -0.041232881868243795, -0.017630325764450536, -0.035108757534362364, -0.033037802885463353, -0.03344611623556667, -0.052957910024356035, -0.034217561694728366, 0.04305919280136407, 0.03422542697068461, 0.059607937913569, 0.043354349274581844, -0.040167135827303455, 0.035775225598762506, 0.03994092628129863, -0.02399589841189036, 0.04874479260384432], [-0.046992713439204796, 0.004127724073886103, 0.0338633391601024, -0.028007418774712488, -0.01284080060386198, -0.031114784358363318, -0.05929205681280759, -0.03815763373505623, 0.05493890275260886, 0.019211696597269807, 0.004040914896190986, 0.056268952519295125, -0.03404580610808619, -0.00405704951752707, 0.011804596381448878, 0.05362112303230278, 0.04599334285674467, -0.0600246274871538, -0.022020306916678105, -0.028818765479128518, 0.04505483103255533, 0.01365885598206343, -0.02948192890582018, -0.035570655590289504, 0.04064299628399207, -0.0417963713897016, 0.0273360828201043, 0.05101439654343407, 0.009912959227848886, -0.05628836672176093], [0.016957960938495876, -0.018675380107115055, -0.07328722057895651, 0.01892767382081732, -0.041478137695025674, -0.02570840673412156, -0.059254105688768884, 0.002909710492106043, 0.028693564102138292, 0.019985828869050825, 0.05113728203710234, 0.02719724317177407, 0.04506357329425696, 0.04412263249707178, 0.022167610977324784, -0.03788494579940029, 0.03571920710682026, -0.031460606260720295, 0.028655652713416156, -0.05839162339984956, 0.030119175541783796, -0.04522093112650939, 0.0329797089161071, -0.0021626078957264175, 0.030990327225909595, 0.027406756422420724, -0.058169786066745326, 0.002074945900632845, 0.05494468531779493, 0.028252709302037316], [0.028839856789645943, -0.022859199874988884, 0.06976675577684971, 0.01019682206478651, -0.06815291847082912, -0.03539213027293185, -0.07937197809362738, -0.042149451912901474, -0.04151912563552317, -0.0685607666133681, 0.02485889400736979, 0.02289504267859732, -0.07855337846704634, -0.006067849069523594, -0.055775625595278946, -0.004819533930630477, -0.003415849985685474, -0.00721204860199119, 0.042000818515510095, 0.03482823797654144, -0.07013746604670844, -0.021145688379022476, 0.0024722605238707202, 0.03597079830228066, 0.004439155984518442, 0.0005299923050715252, 0.021676598017017018, 0.03537302478988218, 0.01956667163132757, -0.04145205968667413], [-0.06465105860088013, 0.04310467610864791, -0.047675660898412124, -0.006033341711275604, 0.06347999707163644, -0.018315805457889, -0.06184985998285675, 0.030274888698624613, -0.061458783998168585, 0.00012230480425163867, 0.06501378381614313, -0.050857698829761044, -0.04544789812698624, 0.00988042300041258, 0.04086529087899436, 0.02496712543324246, 0.033080596787231985, -0.004436105732470728, 0.02670171931246153, 0.01658411090779661, -0.002983411608155506, -0.059938197940337785, 0.00061391002147651, 0.05796637405327905, -0.006621754074618639, -0.01775510777287189, 0.012917188775249456, 0.06012946207826736, -0.06368350543833884, 0.002589958079261256], [-0.0498015771830169, -0.03624692925480657, -0.03645703162466815, -0.013751405253573963, 0.03854795975566366, 0.004344729963823008, 0.003986329508128676, -0.008922065805374121, 0.05986968176379674, -0.058920618772993934, 0.04843547208172174, 0.035683617147701664, -0.046630558667116045, -0.04726274316669439, 0.015663821034605296, -0.03171319830698883, 0.03030580664027504, 0.06572365148939992, -0.023891040097012227, -0.009840608201446863, -0.05171321751485115, -0.0161919505354845, -0.022758695271816124, 0.017888922882989728, -0.005893103340087529, -0.03737089273772581, -0.0659065785421225, 0.050225263255000256, 0.037185210036075125, -0.02886732016503955], [-0.05257665776674197, -0.030232413710364066, -0.04366345511139939, 0.03958300603193935, 0.011783416403261627, 0.011480931087558325, 0.05273123076392516, 0.024080426237801364, -0.02879285160330502, -0.008511989996594195, -0.05089722443937839, -0.05471337469025354, -0.057676825420255866, -0.010598687080031038, 0.014865519259562424, -0.022706305373974563, 0.004009864884331671, -0.008942841872206066, 0.028458787963041136, 0.021554613102446638, -0.043787966184126816, 0.05267253275568345, 0.0606404779204505, 0.008322427164517405, 0.05913120848838126, 0.03037432659560148, 0.045945065415167866, -0.03140567851452631, -0.061284923922983056, -0.02857497024019032], [-0.02309496355553986, -0.0376130535778694, 0.001903949998438831, 0.05545143845323812, -0.029656227940940614, 0.03521482720617077, 0.01355834517913141, -0.049173441138132344, 0.05915735977691605, -0.011503277919131473, -0.024434880085019827, -0.010113584585106042, -0.0312130846055405, -0.018826294206675302, -0.01821051162283385, -0.059850744858787795, -0.004152668589725985, -0.06371943114455056, -0.05356509977668994, -0.050331973569712585, 0.02445278707749065, -0.005964819091687676, -0.015731522891951844, -0.025844492026390158, -0.040207679488948746, -0.05078763458383998, 0.07051281274650528, -0.028326295144339153, -0.027408544617899145, -0.06001825454079614], [-0.04403735000176656, 0.06325056598139094, -0.018045760791655603, -0.061746779788187815, -0.022661301657103245, -0.0023682520389424816, 0.044589229062962595, 0.0031159047273650836, 0.06072354091828081, -0.013883414444560954, 0.05168554994760533, 0.04280038294766328, 0.019811324798840027, 0.04164164472946349, -0.030428759229785593, -0.00819668827376747, -0.015653206198524856, -0.04093201152241417, -0.015555718700298184, -0.05115234347407426, 0.022684471887292265, -0.01330049620480644, -0.04426557541584029, 0.033119308653213865, -0.055373263045782876, -0.02078533165792039, -0.04481863836285016, -0.00698723649620086, 0.0609699382977, 0.04541601074374011], [0.016505161431262495, 0.027545127151950545, -0.06447833743418811, 0.008789712547961848, -0.06429846304533864, 0.010123403967306434, 0.01023163322182384, 0.035262141351107494, 0.003410033569144762, 0.009539849179353537, 0.03618009036303716, 0.03866796988477845, 0.015048221155158841, -0.027908409579489528, 0.06143617029351795, -0.05118687116358869, 0.029938324662972342, 0.014038307749897993, -0.04646604494494571, 0.04026158434980839, -0.010085561331134012, 0.06290779351562917, 0.01926300993146432, 0.05202925097660628, 0.03701549048488052, 0.05829909021492501, 0.03320920900166984, -0.034363304975579365, 0.05556785296225336, 0.025943579559225566], [0.00317189988572638, -0.01756739531029984, -0.012117331723891196, -0.06310707777452372, 0.005794470361809251, 0.007854469162053826, 0.0574924605191523, -0.005582558831794021, 0.05785454649508611, 0.02783963380760546, 0.03714091844664037, 0.06373812153545043, 0.06346442695853748, -0.057223013009334474, -0.02921964182623305, 0.005078436700067862, 0.013123059721650003, -0.05321308302109919, -0.054975157759325606, 0.0067262454463235775, -0.06100239888498765, 0.0339895993467519, 0.02208234837022651, -0.021628645066962094, -0.022405880277584857, 0.0014707834026180464, 0.057964078012088555, 0.05409500773419631, 0.06002944209027736, 0.0230478685177026], [0.035359879232106865, 0.050547269687543354, -0.04694279051906391, 0.04308790167026964, 0.024711018113003736, 0.005251688693208689, 0.025037824374799986, -0.03313395095388007, 0.04191067564796032, -0.045201465980093745, 0.014978901160414835, -0.0395037454378151, 0.04379596994995713, -0.014362445635657773, 0.03784468375838771, -0.02899746569839383, -0.033752139709201635, 0.03513050822739117, -0.03336332393467535, 0.03013183775798093, 0.0432456094020881, 0.05049729587412923, -0.038185597934994146, 0.002516748648371467, -0.0064796799834696125, -0.05086414234355332, 0.04360834443834682, -0.026788768344793833, -0.03513247136939587, -0.03963585551905195], [0.015394671208902722, 0.0013516479459843315, -0.058485719702794654, -0.05588241026296828, 0.03387462890506306, -0.004960327060518554, 0.05638789439275765, -0.05220055401122931, -0.038506387685151695, 0.04272413525477329, -0.028839811247449793, 0.04462795184722194, -0.05735693269875927, 0.051732950269532535, -0.0499193013243636, 0.0012180070195173828, -0.002534857036018939, 0.05713837148148174, -0.04124927550328538, 0.04287835294449851, 0.01590387131118798, -0.0111613143048666, -0.009235083314905005, -0.056786628034026496, 0.04569972450981833, -0.050863576569119884, -0.019753613728793275, -0.01731739738348647, 0.004518544232825694, -0.0314960588086978], [-0.03722541069860405, -0.03390433731188898, -0.04699994879211288, 0.06584374637381245, 0.06128605824657607, 0.002960397174935522, -0.055174118399628914, 0.019157311664423377, -0.026519545371444665, 0.03799585708389841, -0.019864176487839325, 0.04711018554078621, -0.027594354553419267, -0.05980245354023886, 0.07047087974742117, -0.03148044185385304, -0.00022919578917203728, -0.008592076885394038, 0.036608551799807314, -0.019894639728479213, 0.015534774657955818, -0.05133286594469936, 0.01927772783242893, 0.03736608298528745, 0.009164785528169808, 0.04317606388417389, -0.01885501603443719, -0.02591452570218048, 0.06554120623131038, 0.005123264155621241], [0.05227332413422759, 0.04581334620020043, -0.03385153030173826, 0.04483667357646131, 0.015318896304136765, 0.02838653759715046, -0.036621017000854336, -0.052886297775024446, -0.018845789469653505, 0.021008687385727247, -0.03768820238953137, -0.032098862846257535, 0.053735293899270925, -0.04155219291196902, 0.045184368510869544, -0.043223921950176665, -0.014851857535763959, 0.00137924917926801, 0.044124076422096564, 0.028496186869527443, -0.026036479719752145, -0.04941753522257076, 0.02356991936275114, -0.050512324998484265, -0.027685738012391502, 0.05013375087143037, -0.02588429205894412, 0.02154357199733146, -0.021502367536236265, 0.01153770796020258], [-0.028322172744957325, 0.05836188796488014, 0.03614482231916125, -0.02803374492334968, 0.05873863080475888, 0.03725657538645778, 0.029376340665282375, -0.030644498323762093, -0.029713403831183403, -0.004218870876492114, 0.034284199923846834, -0.03724691170016206, 0.03996529120603704, -0.021450437912080064, -0.0032933719271639743, -0.02329984511716527, -0.04139497584065785, 0.03191657321726245, 0.049762927199535234, -0.02129387099081127, 0.02155597256550627, -0.03133058737024786, -0.04162246403322702, 0.011805406352946114, 0.05524861218029719, -0.0326622952199173, 0.03375406158220442, -0.07269903058765415, 0.037724898737368784, -0.01687731849562399], [-0.04233709568836192, -0.02884836422873275, -0.01541438908228634, -0.05029698657522075, -0.04549161607019157, -0.04927888707123917, 0.0008186763774603487, -0.011318910342234962, -0.033827231736416996, -0.009503808864128091, -0.06437883806833457, 0.02567077728111902, -0.03365628048079141, -0.05275771172696797, 0.02762173133099771, -0.0013580808836554928, 0.035438299602836405, 0.04133159949759837, -0.059961260913394245, 0.007006245260406008, 0.018283425899671822, -0.05531202787337984, 0.05429648433786366, 0.06416676102220975, 0.01501124494206271, 0.0001223074845314265, -0.032836740269343634, 0.06240830268680202, -0.047728401303991703, 0.013517513097769262], [-0.039336624142001855, -0.047294426919085815, -0.00693759114750101, -0.03224953121113265, -0.000949369527707393, -0.03007006824738165, -0.0625006211207527, -0.0030500486919674873, 0.04313433745299967, 0.029589004786490517, 0.019701232266296144, 0.03619206436378379, 0.0020265145964740955, -0.00943814978266373, -0.03955626514764249, -0.0471336781844355, 0.056703365941200214, -0.04285225757017816, -0.024463963673613774, -0.054923509458981855, -0.04464862000846437, -0.004502925945377489, -0.05317369208719296, -0.040656820546843296, 0.04316725243923378, 0.048034403069132044, 0.018029268818537565, 0.010241400953041824, 0.06011016098836221, 0.04933283091152393], [-0.02532384395669889, 0.05098572643173352, 0.038734446694876024, 0.023792225742005933, 0.0019538568060905393, -0.024694633946337113, -0.05413476507438714, 0.055889666846755566, -0.010920459513792198, -0.05628546475522509, 0.05652096998068584, 0.036434778364944236, -0.05018552855839717, 0.02070610922736861, 0.031014147258624385, 0.04133781566317691, 0.015386607253689101, -0.011105261176292649, 0.019380198370975567, 0.017789855259218782, -0.015534042689980926, -0.049546253837990335, 0.038157671211792366, -0.04511739958823788, -0.047109875640111, 0.007703002928562502, 0.047274443283197534, 0.05192253521286805, 0.05231466704688072, 0.0027437476791031356]]
[[-0.06267975185878226, -0.006888857760957179, -0.039084812062630224, -0.0385864623195895, -0.056158969647639924, 0.04110166267196526, 0.04273560149255456, 0.06019663498273013, 0.021649984858202867, -0.01782972668812733, -0.009216372769089543, 0.012465250883020028, -0.010805801515271518, -0.053657713817386155, 0.011407057995568095, 0.024513252169214083, -0.017012389419716913, 0.017457287875584166, 0.05713942353693722, 0.04421415351312855, 0.025048691885160224, -0.05390214872700324, -0.010764852760729885, 0.03639272355771745, 0.026540287068467276, -0.04081629052497163, -0.0631163735733533, -0.05145996207509214, 0.017011733503544568, 0.030145768485864626], [0.04187094137008892, -0.05428429373609378, 0.04861005461364287, 0.057146096682921387, -0.01181058246215304, 0.04536957688442404, -0.016430176075605357, 0.05655060391249468, 0.007092280616213251, -0.061272948214480726, 0.0051681708874522555, -0.04974994120539772, 0.0010538490766461735, -0.0438503744495131, 0.008943472798098394, 0.06163049425945097, -0.05618447751957866, -0.036236457530544344, 0.030474004234315736, 0.020493933570634455, -0.04064089537963063, 0.018102064819163568, -0.02919591809172238, -0.05145256529633552, -0.023740879354748206, -0.006730367010789423, 0.01783813512361132, -0.021102896224458486, -0.0598311647387009, -0.017142383861089582], [0.0037140209274869464, -0.01258191489186412, -0.06059911468272476, 0.0471036152182566, -0.049320072061630325, -0.015450639082313204, -0.04882672714508067, -0.0083352286263053, -0.03804679682450786, -0.052390579415461, 0.03153755947743379, 0.05107452345562608, -0.034983184938733106, 0.002434195350541855, 0.030498305007607016, 0.04211243246013164, 0.009060840273754396, 0.015509598609806606, 0.061641976446020284, 0.05474449465474452, 0.056136356010281475, -0.01506648197779512, 0.045881483040169944, 0.01759063673685414, -0.004634952936294745, 0.008458364250601673, -0.023620838517540405, 0.06209221578624795, -0.035619375753213035, 0.06093347544097148], [-0.02205562667444497, -0.05205547895667764, 0.024153200610443203, 0.062105484511107104, 0.04564483323421001, -0.050813305358188364, -0.030151362640202812, 0.016182850473027803, 0.04284790652730578, 0.04877423921415773, 0.042697399764476965, -0.03576056543833707, 0.060901596324646354, 0.059747295504616243, -0.008904048417466356, 0.05333879573691658, -0.00656431039970747, -0.016202409229973614, 0.037768559466814004, -0.01962105327421932, 0.03328512102825373, -0.003183917131577522, -0.03807884956681576, 0.03556676239056054, 0.024090537120337673, -0.03143927165388085, 0.011332018893136842, 0.0003878266864243491, 0.02589172150184766, 0.06045365227022555], [-0.05229750635736259, 0.038874107245524835, 0.008172849274785775, 0.039220022251816866, -0.0017413071693502223, -0.047159233870103366, -0.02632093760309609, 0.03702349208060794, 0.04948433475068804, 0.04367896396999075, 0.04200982553016289, 0.05035814929155114, 0.014419870386177716, -0.025950627290064907, 0.013314651624701166, -0.04218754978815015, -0.02501144733697248, -0.01380117908773513, -0.0530506118185629, -0.03765933750687245, 0.05149710645112842, -0.006463271974526101, 0.030166354101006168, 0.04562361789411934, 0.02528731295825109, 0.0055028776253940705, 0.04756339646703101, -0.04368569516391772, -0.032316022055925785, 0.050158341074422984], [0.030237368743287203, -0.04700472592988397, -0.0031590698795923786, 0.013243033171318247, 0.027932248881384656, 0.07103827532511084, 0.03873915508806089, -0.0246904087931202, 0.016033461632910993, 0.0028393807333954866, 0.03374935772061938, -0.054478561503600566, -0.01144199727622282, -0.044828682763710645, -0.015883011373695428, 0.041136958741737555, -0.03798714822356766, -0.03353884370993736, -0.03881625774582316, 0.05766499059925542, 0.06595376246585512, 0.013401160600601127, 0.0167920530537803, -0.027162391642135457, -0.012204814751635517, 0.01551105717360263, -0.061136156850923974, 0.06445722776809722, -0.04951171291430753, 0.029426724942826214], [0.04692668265993173, 0.011899967385430508, 0.053667264012227635, 0.04329662472749678, -0.04185685428816508, -0.06113576611462083, -0.05543201780722075, -0.008858190482179113, -0.03584810078469782, 0.026153106723523264, -0.059355189594920456, 0.04122835196944939, 0.0299292831344335, 0.016978693024649067, -0.029004786247361844, -0.01202194131857857, 0.00852411280660958, -0.00852560265305517, -0.0372155694206765, 0.05670728322049611, 0.053050695194336236, -0.05169514505817855, 0.06144445100788004, -0.0492105617625694, -0.00440061047924399, -0.01643180984244326, 0.00924689568560913, -0.04665268693880229, -0.021608615881524598, 0.0016931397736888996], [-0.04327569677275901, 0.02625357539319461, 0.03821938287855433, 0.02582271980030597, -0.070159717669685, 0.01915989640768138, 0.0478690142652642, -0.0038682642432336383, -0.009155103247793492, -0.015465968044058052, -0.0413481728125426, -0.01292061433387657, 0.0011532250084952895, -0.058897706321317016, 0.04030569836187507, 0.010026872585801695, -0.026175887601758138, 0.06810896154009165, 0.010029255429894869, -0.04722341513506824, 0.017001859211967316, 0.034566944922023224, -0.039178823457219375, -0.05506012520706113, -0.06115928079576726, 0.07441586595646679, -0.012717310826548903, -0.052059658162502444, -0.02236363434375327, 0.016037349263439384], [-0.01612645455927992, -0.04569121713516709, 0.06081241847808801, 0.07308932113018009, -0.01836476245982762, -0.006144360078873639, -0.060283040342034556, 0.054160556292665536, -0.04035760724729914, -0.05255040670977946, 0.03070728020678443, -0.011194371708301258, -0.02447994432259106, 0.01161155501930487, -0.05610550465170534, -0.04941679600416117, 0.021894024319520748, -0.006253140640230938, -0.04886576882169523, 0.03574568299234747, 0.026866205023194815, 0.03792297495648823, 0.0335408610073355, -0.01744365236788716, -0.027990983365410806, 0.0, 0.046345502216014044, -0.057245735484309446, -0.01812360460979241, -0.010666267849729903], [-0.01907122732659112, 0.009479693528324513, 0.0027803137726344187, 0.013290436883589775, -0.04619752121541059, 0.04005875937747345, -0.03446161016733616, 0.04971684564173776, 0.030560133565290287, -0.02662005409300735, 0.0017549563012635916, 0.07187770713347438, 0.016284684462849336, 0.004474896762989271, -0.04331096682029967, -0.04381753989443326, -0.07313957240860541, -0.03707662666894241, -0.059314299297730744, -0.01546311128066411, 0.056679175116313714, 0.0730641275958408, -0.021140932283474696, 0.0018815261869251146, 0.04456818084529993, -0.06805795796215279, 0.057907795962055496, 0.013917655948753998, -0.014713298089209232, 0.009318393407326426], [-0.006550746130805484, 0.04849021907023148, 0.026395575727883896, 0.013190687561460426, -0.025388287384516536, 0.004177837897283658, -0.01253554820477898, -0.04385237472824631, -0.04009308239773603, 0.04765882937594954, -0.022243479071037166, -0.04847758895248839, -0.054570025629774435, 0.06778284584924536, -0.0251410849120517, -0.0026426731342787924, 0.027681725664945544, 0.0010173951480952907, 0.0004488587680472557, 0.0034961098841550845, -0.02472934340646823, 0.025384247585970503, 0.06319049586098058, 0.05138305617581915, -0.0647877821107676, 0.054563070965325526, -0.0728293316537859, -0.05388505434656401, 0.0008199790886722527, 0.06659266331263484], [-0.042586462021979514, -0.01813472072855629, 0.025699284733949637, -0.05320776542209631, 0.04562136082032682, 0.0349482253127122, 0.02389425699106584, -0.035754389142406647, 0.023845230765223928, 0.055693490861721484, 0.04591729385608923, 0.013982079628132367, -0.03200971562852874, -0.018982442826487343, -0.003764330980055403, 0.03332014263126723, 0.04486896494592329, 0.17358547318618558, -0.02129566167546772, -0.002807442491957813, -0.008659416799544522, -0.047581130225729705, -0.0133454427235531, 0.021514053571747842, -0.037133505605219566, 0.04517239682075691, -0.035190972054770966, -0.031675956309770346, 0.0061533394596502995, 0.003655051779123298], [0.0687163666711191, -0.030889542078712452, -0.05946563702375858, 0.01683045625360215, 0.04257382468074771, 0.001604275936062047, 0.05502837644021114, 0.01079219427083719, 0.06199941534654836, 0.03165320450893275, 0.01580599964634647, 0.018069292754824603, -0.04108678142732348, 0.06679318949225993, 0.04705551047087594, 0.015591352811045695, 0.014594524075763806, -0.04521852591349755, 0.060518326659430986, 0.056746316438664374, -0.0016042762883080673, 0.017807540080608655, -0.019855405329831915, -0.0011368113661376089, -0.02485183354916007, 0.01605099874885616, -0.008545637411842416, 0.05394611558534765, -0.03852157872259086, 0.05664669001675214], [-0.04684693977444458, 0.05000010440875807, 0.0006377587792518319, 0.057034317106092906, 0.01587460475503233, -0.0485028187507392, -0.026405696818763154, 0.033826999064311955, 0.013404501817300275, -0.06871518005537491, -0.03892909979997512, -0.04513640119518146, -0.013715064275115138, -0.038078455828288664, 0.05261052755522585, -0.06231724390366283, -0.01603377383354089, 0.031221353361845894, -0.0033930382345196087, 0.020904128148583095, -0.06840707569260379, 0.04199671655249729, -0.03977921028131319, -0.035596571647697445, -0.029465265245949328, -0.005158781336279654, 0.0003436287416952858, 0.025021926859128473, 0.05405237000413089, -0.01659044617269702], [0.055363144055520855, 0.017236240423446982, -0.027989017569043078, -0.03350502802483192, 0.025419857222702, -0.012908310435712163, 0.06051471734673775, 0.003908557366520688, 0.04112061725993614, -0.008875395960093619, 0.004403809079915675, -0.0025712783779969495, 0.01966566291863965, -0.05477914948162323, 0.047259036153523344, -0.037658951444041806, -0.012062827081994623, 0.021794777858365828, 0.0468804904016892, 0.05380985193093669, 0.023999348169099745, -0.06132264750342595, 0.01851493473330057, -0.010386414587018666, -0.045736846857134715, 0.04214952003628874, 0.0407446514841934, 0.06199900635694853, 0.040390606491081074, -0.06702930338823657], [0.035977054700331634, 0.0432427499684325, -0.037922541675579596, -0.01787695729535004, 0.005448563325189587, -0.01935763467657099, 0.0093607967985026, 0.06314499325021626, -0.0556822203860561, 0.013944864656830758, -0.030143109827753204, 0.016612241284928237, 0.016502128589789302, 0.042407568710806066, 0.056032542560173884, -0.03703045671628676, 0.04363774773512604, 0.03694416111983432, -0.04711228709485398, -0.06730302810114766, -0.05858842991971156, -0.04761989882263494, -0.01485768572652551, 0.029438550892166918, 0.00514828773535528, 0.06679437045948519, 0.014800547838814895, 0.05336344182558512, 0.001485540816451731, 0.012219597489509453], [0.0017091254527760937, -0.036036354096564256, 0.042304901508111635, -0.05676922520693013, -0.046322316449067966, 0.06495063636308386, -0.041465508014901335, 0.0023565204371521838, -0.0037168899255863746, -0.03332324797552389, 0.007605085387738975, 0.030072066787157625, -0.06445686343546776, 0.0240393176118351, 0.010925129127496639, -0.06203485137364554, -0.016900800262812918, -0.01955792586190581, -0.0382018478778445, -0.05571191251242039, 0.05665368296697713, -0.018802675939890427, -0.05478279956551404, 0.01022716908671799, 0.004963483154220299, -0.012565482619074987, -0.06827283159630827, 0.011730556419221388, 0.05499967644264995, 0.04854111654140265], [-0.02566462123171492, -0.007517427280455373, -0.02623837138098184, 0.0648947189479816, 0.07990224340216301, -0.03531423314442029, 0.01331007391942042, -0.006670225297047958, 0.052630683300692774, -0.017925763954265695, 0.04627797927290838, -0.0399920294160634, 0.04844424267980284, -0.06109006026563365, 0.03832805461217277, -0.0325470501259243, 0.010159914664671706, -0.07287286008261115, -0.07734891254265865, -0.0048273033814713985, -0.04126983132660997, 0.004022295436431703, 0.020521973697635188, 0.028029256326801373, 0.04591421166824893, -0.0016758507862631152, -0.003932051986924282, -0.010480609204820489, 0.07256026788321732, 0.009636882779985314]]